{"learner":{"attributes":{"scikit_learn":"{\"_estimator_type\": \"classifier\"}"},"feature_names":["jumlah_penduduk","jumlah_kepadatan","sulfur_dioksida","karbon_monoksida","ozon","nitrogen_dioksida","wilayah","pm_sepuluh","pm_duakomalima"],"feature_types":["int","float","float","float","float","float","int","float","float"],"gradient_booster":{"model":{"gbtree_model_param":{"num_parallel_tree":"1","num_trees":"300"},"iteration_indptr":[0,3,6,9,12,15,18,21,24,27,30,33,36,39,42,45,48,51,54,57,60,63,66,69,72,75,78,81,84,87,90,93,96,99,102,105,108,111,114,117,120,123,126,129,132,135,138,141,144,147,150,153,156,159,162,165,168,171,174,177,180,183,186,189,192,195,198,201,204,207,210,213,216,219,222,225,228,231,234,237,240,243,246,249,252,255,258,261,264,267,270,273,276,279,282,285,288,291,294,297,300],"tree_info":[0,1,2,0,1,2,0,1,2,0,1,2,0,1,2,0,1,2,0,1,2,0,1,2,0,1,2,0,1,2,0,1,2,0,1,2,0,1,2,0,1,2,0,1,2,0,1,2,0,1,2,0,1,2,0,1,2,0,1,2,0,1,2,0,1,2,0,1,2,0,1,2,0,1,2,0,1,2,0,1,2,0,1,2,0,1,2,0,1,2,0,1,2,0,1,2,0,1,2,0,1,2,0,1,2,0,1,2,0,1,2,0,1,2,0,1,2,0,1,2,0,1,2,0,1,2,0,1,2,0,1,2,0,1,2,0,1,2,0,1,2,0,1,2,0,1,2,0,1,2,0,1,2,0,1,2,0,1,2,0,1,2,0,1,2,0,1,2,0,1,2,0,1,2,0,1,2,0,1,2,0,1,2,0,1,2,0,1,2,0,1,2,0,1,2,0,1,2,0,1,2,0,1,2,0,1,2,0,1,2,0,1,2,0,1,2,0,1,2,0,1,2,0,1,2,0,1,2,0,1,2,0,1,2,0,1,2,0,1,2,0,1,2,0,1,2,0,1,2,0,1,2,0,1,2,0,1,2,0,1,2,0,1,2,0,1,2,0,1,2,0,1,2,0,1,2,0,1,2,0,1,2,0,1,2,0,1,2,0,1,2,0,1,2,0,1,2,0,1,2],"trees":[{"base_weights":[-4.4692136E-8,9.970392E-1,-7.195164E-1,1.3893604E0,-3.0863127E-1,7.361959E-2,-7.3847765E-1,1.4798906E-1,-7.357295E-2,1.4289813E-1,-7.475483E-2,7.469388E-2,-5.8102775E-2,-3.9759044E-2,-7.48273E-2],"categories":[],"categories_nodes":[],"categories_segments":[],"categories_sizes":[],"default_left":[0,0,0,0,0,0,0,0,0,0,0,0,0,0,0],"id":0,"left_children":[1,3,5,7,9,11,13,-1,-1,-1,-1,-1,-1,-1,-1],"loss_changes":[2.8260225E3,8.462544E2,3.4465088E1,2.45396E2,2.9266147E2,2.4383394E1,7.164551E0,0E0,0E0,0E0,0E0,0E0,0E0,0E0,0E0],"parents":[2147483647,0,0,1,1,2,2,3,3,4,4,5,5,6,6],"right_children":[2,4,6,8,10,12,14,-1,-1,-1,-1,-1,-1,-1,-1],"split_conditions":[4.8E1,5.1E1,5.1E1,5.1E1,1.832032E6,5.1E1,1E1,1.4798906E-1,-7.357295E-2,1.4289813E-1,-7.475483E-2,7.469388E-2,-5.8102775E-2,-3.9759044E-2,-7.48273E-2],"split_indices":[8,2,8,7,0,2,4,0,0,0,0,0,0,0,0],"split_type":[0,0,0,0,0,0,0,0,0,0,0,0,0,0,0],"sum_hessian":[3.937333E3,1.6502222E3,2.287111E3,1.2688888E3,3.813333E2,5.333333E1,2.2337776E3,1.2173333E3,5.1555553E1,7.644444E1,3.048889E2,2.6222221E1,2.7111109E1,6.3555553E1,2.1702222E3],"tree_param":{"num_deleted":"0","num_feature":"9","num_nodes":"15","size_leaf_vector":"1"}},{"base_weights":[-4.4692136E-8,3.0921075E-1,-6.7056936E-1,-2.763406E-1,1.1543341E0,-4.2528322E-1,-7.492023E-2,-6.478647E-2,1.02892175E-1,1.3732181E-1,-7.434657E-2,-6.7658E-2,1.4584616E-1],"categories":[],"categories_nodes":[],"categories_segments":[],"categories_sizes":[],"default_left":[0,0,0,0,0,0,0,0,0,0,0,0,0],"id":1,"left_children":[1,3,5,7,9,11,-1,-1,-1,-1,-1,-1,-1],"loss_changes":[8.1681006E2,1.3345247E3,2.3660034E1,7.7338574E2,4.5948206E2,1.4494656E2,0E0,0E0,0E0,0E0,0E0,0E0,0E0],"parents":[2147483647,0,0,1,1,2,2,3,3,4,4,5,5],"right_children":[2,4,6,8,10,12,-1,-1,-1,-1,-1,-1,-1],"split_conditions":[9.4E1,4.6E1,1.01E2,5.1E1,8.3E1,1.9E1,-7.492023E-2,-6.478647E-2,1.02892175E-1,1.3732181E-1,-7.434657E-2,-6.7658E-2,1.4584616E-1],"split_indices":[8,8,8,2,7,5,0,0,0,0,0,0,0],"split_type":[0,0,0,0,0,0,0,0,0,0,0,0,0],"sum_hessian":[3.937333E3,2.6951108E3,1.2422222E3,1.5924443E3,1.1026666E3,3.0311108E2,9.391111E2,1.2399999E3,3.5244443E2,9.8888885E2,1.1377777E2,2.6799997E2,3.511111E1],"tree_param":{"num_deleted":"0","num_feature":"9","num_nodes":"13","size_leaf_vector":"1"}},{"base_weights":[-4.4692136E-8,-6.547703E-1,1.419966E0,-7.497096E-2,1.4869313E-1,1.172817E0,1.4984046E-1,1.4237918E-1,-7.292309E-2],"categories":[],"categories_nodes":[],"categories_segments":[],"categories_sizes":[],"default_left":[0,0,0,0,0,0,0,0,0],"id":2,"left_children":[1,3,5,-1,-1,7,-1,-1,-1],"loss_changes":[3.6626013E3,5.493196E2,2.2343506E1,0E0,0E0,1.4621063E2,0E0,0E0,0E0],"parents":[2147483647,0,0,1,1,2,2,5,5],"right_children":[2,4,6,-1,-1,8,-1,-1,-1],"split_conditions":[9.4E1,8.3E1,1.01E2,-7.497096E-2,1.4869313E-1,1.9E1,1.4984046E-1,1.4237918E-1,-7.292309E-2],"split_indices":[8,7,8,0,0,5,0,0,0],"split_type":[0,0,0,0,0,0,0,0,0],"sum_hessian":[3.937333E3,2.6951108E3,1.2422222E3,2.5813333E3,1.1377777E2,3.0311108E2,9.391111E2,2.6799997E2,3.511111E1],"tree_param":{"num_deleted":"0","num_feature":"9","num_nodes":"9","size_leaf_vector":"1"}},{"base_weights":[7.190762E-5,8.5984844E-1,-7.1092325E-1,1.2007751E0,-3.0828673E-1,-3.693205E-1,-7.208859E-2,1.2763047E-1,-7.3206805E-2,1.3217947E-1,-7.252114E-2,1.3440265E-1,-7.1720175E-2],"categories":[],"categories_nodes":[],"categories_segments":[],"categories_sizes":[],"default_left":[0,0,0,0,0,0,0,0,0,0,0,0,0],"id":3,"left_children":[1,3,5,7,9,11,-1,-1,-1,-1,-1,-1,-1],"loss_changes":[2.3953027E3,7.067136E2,7.033081E0,2.0139331E2,2.7382135E2,3.84125E1,0E0,0E0,0E0,0E0,0E0,0E0,0E0],"parents":[2147483647,0,0,1,1,2,2,3,3,4,4,5,5],"right_children":[2,4,6,8,10,12,-1,-1,-1,-1,-1,-1,-1],"split_conditions":[5.1E1,5.1E1,1E1,5.1E1,1.832032E6,1.832032E6,-7.208859E-2,1.2763047E-1,-7.3206805E-2,1.3217947E-1,-7.252114E-2,1.3440265E-1,-7.1720175E-2],"split_indices":[8,2,4,7,0,0,0,0,0,0,0,0,0],"split_type":[0,0,0,0,0,0,0,0,0,0,0,0,0],"sum_hessian":[3.9163948E3,1.7726248E3,2.14377E3,1.3721323E3,4.0049243E2,6.1828796E1,2.0819412E3,1.320857E3,5.1275314E1,8.112839E1,3.1936404E2,9.951802E0,5.1876995E1],"tree_param":{"num_deleted":"0","num_feature":"9","num_nodes":"13","size_leaf_vector":"1"}},{"base_weights":[3.1566597E-4,2.8278506E-1,-6.4276767E-1,-2.589633E-1,1.0140289E0,-4.0231985E-1,-7.211452E-2,-6.1964955E-2,9.084417E-2,1.1944052E-1,-7.157209E-2,-6.483822E-2,1.2687878E-1],"categories":[],"categories_nodes":[],"categories_segments":[],"categories_sizes":[],"default_left":[0,0,0,0,0,0,0,0,0,0,0,0,0],"id":4,"left_children":[1,3,5,7,9,11,-1,-1,-1,-1,-1,-1,-1],"loss_changes":[7.1191406E2,1.0789974E3,2.2250793E1,6.595298E2,3.6248584E2,1.2265866E2,0E0,0E0,0E0,0E0,0E0,0E0,0E0],"parents":[2147483647,0,0,1,1,2,2,3,3,4,4,5,5],"right_children":[2,4,6,8,10,12,-1,-1,-1,-1,-1,-1,-1],"split_conditions":[9.4E1,4.6E1,1.01E2,5.1E1,8.3E1,1.9E1,-7.211452E-2,-6.1964955E-2,9.084417E-2,1.1944052E-1,-7.157209E-2,-6.483822E-2,1.2687878E-1],"split_indices":[8,8,8,2,7,5,0,0,0,0,0,0,0],"split_type":[0,0,0,0,0,0,0,0,0,0,0,0,0],"sum_hessian":[3.9171228E3,2.7220454E3,1.1950773E3,1.5639934E3,1.1580521E3,2.952961E2,8.997811E2,1.1951913E3,3.6880203E2,1.0489757E3,1.0907648E2,2.5792932E2,3.7366817E1],"tree_param":{"num_deleted":"0","num_feature":"9","num_nodes":"13","size_leaf_vector":"1"}},{"base_weights":[-3.877659E-4,-6.2779665E-1,1.2338871E0,-7.221603E-2,1.2892523E-1,1.0299288E0,1.2977229E-1,1.2366062E-1,-7.021166E-2],"categories":[],"categories_nodes":[],"categories_segments":[],"categories_sizes":[],"default_left":[0,0,0,0,0,0,0,0,0],"id":5,"left_children":[1,3,5,-1,-1,7,-1,-1,-1],"loss_changes":[3.0331995E3,4.706978E2,1.5850098E1,0E0,0E0,1.1524457E2,0E0,0E0,0E0],"parents":[2147483647,0,0,1,1,2,2,5,5],"right_children":[2,4,6,-1,-1,8,-1,-1,-1],"split_conditions":[9.4E1,8.3E1,1.01E2,-7.221603E-2,1.2892523E-1,1.9E1,1.2977229E-1,1.2366062E-1,-7.021166E-2],"split_indices":[8,7,8,0,0,5,0,0,0],"split_type":[0,0,0,0,0,0,0,0,0],"sum_hessian":[3.914863E3,2.5958347E3,1.3190283E3,2.4746475E3,1.2118724E2,3.185099E2,1.0005184E3,2.8481073E2,3.3699158E1],"tree_param":{"num_deleted":"0","num_feature":"9","num_nodes":"9","size_leaf_vector":"1"}},{"base_weights":[3.5251374E-4,7.766834E-1,-6.8654513E-1,1.0702146E0,-2.893628E-1,-3.4201515E-1,-6.967591E-2,1.1376077E-1,-7.283192E-2,1.2310614E-1,-7.045333E-2,1.2608461E-1,-6.925393E-2],"categories":[],"categories_nodes":[],"categories_segments":[],"categories_sizes":[],"default_left":[0,0,0,0,0,0,0,0,0,0,0,0,0],"id":6,"left_children":[1,3,5,7,9,11,-1,-1,-1,-1,-1,-1,-1],"loss_changes":[2.0584434E3,5.673451E2,6.968628E0,1.730752E2,2.4832127E2,3.5106976E1,0E0,0E0,0E0,0E0,0E0,0E0,0E0],"parents":[2147483647,0,0,1,1,2,2,3,3,4,4,5,5],"right_children":[2,4,6,8,10,12,-1,-1,-1,-1,-1,-1,-1],"split_conditions":[5.1E1,5.1E1,1E1,5.1E1,1.832032E6,1.832032E6,-6.967591E-2,1.1376077E-1,-7.283192E-2,1.2310614E-1,-7.045333E-2,1.2608461E-1,-6.925393E-2],"split_indices":[8,2,4,7,0,0,0,0,0,0,0,0,0],"split_type":[0,0,0,0,0,0,0,0,0,0,0,0,0],"sum_hessian":[3.858113E3,1.8110903E3,2.0470227E3,1.4200748E3,3.9101544E2,5.9931396E1,1.9870913E3,1.3691392E3,5.0935654E1,8.344835E1,3.075671E2,1.0288334E1,4.9643063E1],"tree_param":{"num_deleted":"0","num_feature":"9","num_nodes":"13","size_leaf_vector":"1"}},{"base_weights":[7.834255E-4,2.6133558E-1,-6.183296E-1,-2.4339472E-1,9.084703E-1,-3.8199311E-1,-6.965886E-2,-5.9382033E-2,8.13097E-2,1.0620686E-1,-6.9126785E-2,1.2038145E-1,-6.1662223E-2],"categories":[],"categories_nodes":[],"categories_segments":[],"categories_sizes":[],"default_left":[0,0,0,0,0,0,0,0,0,0,0,0,0],"id":7,"left_children":[1,3,5,7,9,11,-1,-1,-1,-1,-1,-1,-1],"loss_changes":[6.233205E2,8.885076E2,2.0902344E1,5.66433E2,2.936004E2,1.0750088E2,0E0,0E0,0E0,0E0,0E0,0E0,0E0],"parents":[2147483647,0,0,1,1,2,2,3,3,4,4,5,5],"right_children":[2,4,6,8,10,12,-1,-1,-1,-1,-1,-1,-1],"split_conditions":[9.4E1,4.6E1,1.01E2,5.1E1,8.3E1,3.8E1,-6.965886E-2,-5.9382033E-2,8.13097E-2,1.0620686E-1,-6.9126785E-2,1.2038145E-1,-6.1662223E-2],"split_indices":[8,8,8,2,7,4,0,0,0,0,0,0,0],"split_type":[0,0,0,0,0,0,0,0,0,0,0,0,0],"sum_hessian":[3.8620845E3,2.7185623E3,1.1435222E3,1.5276787E3,1.1908835E3,2.8592633E2,8.575959E2,1.1475035E3,3.8017523E2,1.0868646E3,1.0401885E2,3.6319557E1,2.4960678E2],"tree_param":{"num_deleted":"0","num_feature":"9","num_nodes":"13","size_leaf_vector":"1"}},{"base_weights":[-1.1386118E-3,-6.0469043E-1,1.0975235E0,-6.983263E-2,1.1452899E-1,9.2238915E-1,1.15185045E-1,-7.0924126E-2,1.10053055E-1],"categories":[],"categories_nodes":[],"categories_segments":[],"categories_sizes":[],"default_left":[0,0,0,0,0,0,0,0,0],"id":8,"left_children":[1,3,5,-1,-1,7,-1,-1,-1],"loss_changes":[2.555459E3,4.0838177E2,1.1938599E1,0E0,0E0,9.6273315E1,0E0,0E0,0E0],"parents":[2147483647,0,0,1,1,2,2,5,5],"right_children":[2,4,6,-1,-1,8,-1,-1,-1],"split_conditions":[9.4E1,8.3E1,1.01E2,-6.983263E-2,1.1452899E-1,3.8E1,1.15185045E-1,-7.0924126E-2,1.10053055E-1],"split_indices":[8,7,8,0,0,4,0,0,0],"split_type":[0,0,0,0,0,0,0,0,0],"sum_hessian":[3.851808E3,2.4863674E3,1.3654406E3,2.3606572E3,1.2571021E2,3.275369E2,1.0379037E3,3.194699E1,2.955899E2],"tree_param":{"num_deleted":"0","num_feature":"9","num_nodes":"9","size_leaf_vector":"1"}},{"base_weights":[7.6503586E-4,7.110349E-1,-6.649615E-1,9.6992654E-1,-2.7126455E-1,-3.1608248E-1,-6.754798E-2,1.03190064E-1,-7.2452776E-2,1.1569368E-1,-6.858648E-2,1.1917025E-1,-6.706269E-2],"categories":[],"categories_nodes":[],"categories_segments":[],"categories_sizes":[],"default_left":[0,0,0,0,0,0,0,0,0,0,0,0,0],"id":9,"left_children":[1,3,5,7,9,11,-1,-1,-1,-1,-1,-1,-1],"loss_changes":[1.7832119E3,4.642696E2,6.9299316E0,1.5240845E2,2.2660773E2,3.2259655E1,0E0,0E0,0E0,0E0,0E0,0E0,0E0],"parents":[2147483647,0,0,1,1,2,2,3,3,4,4,5,5],"right_children":[2,4,6,8,10,12,-1,-1,-1,-1,-1,-1,-1],"split_conditions":[5.1E1,5.1E1,1E1,5.1E1,1.832032E6,1.832032E6,-6.754798E-2,1.03190064E-1,-7.2452776E-2,1.1569368E-1,-6.858648E-2,1.1917025E-1,-6.706269E-2],"split_indices":[8,2,4,7,0,0,0,0,0,0,0,0,0],"split_type":[0,0,0,0,0,0,0,0,0,0,0,0,0],"sum_hessian":[3.769236E3,1.8235768E3,1.9456592E3,1.4432192E3,3.803575E2,5.785117E1,1.8878081E3,1.3926737E3,5.0545578E1,8.5171394E1,2.951861E2,1.0564002E1,4.7287167E1],"tree_param":{"num_deleted":"0","num_feature":"9","num_nodes":"13","size_leaf_vector":"1"}},{"base_weights":[1.3650454E-3,2.4357216E-1,-5.9640986E-1,-2.079236E-1,8.5570705E-1,-3.630731E-1,-6.749804E-2,-5.784603E-2,7.220896E-2,1.0006388E-1,-6.696623E-2,-6.005932E-2,1.0495635E-1],"categories":[],"categories_nodes":[],"categories_segments":[],"categories_sizes":[],"default_left":[0,0,0,0,0,0,0,0,0,0,0,0,0],"id":10,"left_children":[1,3,5,7,9,11,-1,-1,-1,-1,-1,-1,-1],"loss_changes":[5.473904E2,7.4377966E2,1.9741241E1,5.342954E2,2.5320166E2,9.3497856E1,0E0,0E0,0E0,0E0,0E0,0E0,0E0],"parents":[2147483647,0,0,1,1,2,2,3,3,4,4,5,5],"right_children":[2,4,6,8,10,12,-1,-1,-1,-1,-1,-1,-1],"split_conditions":[9.4E1,4.8E1,1.01E2,5E1,8.3E1,1.9E1,-6.749804E-2,-5.784603E-2,7.220896E-2,1.0006388E-1,-6.696623E-2,-6.005932E-2,1.0495635E-1],"split_indices":[8,8,8,2,7,5,0,0,0,0,0,0,0],"split_type":[0,0,0,0,0,0,0,0,0,0,0,0,0],"sum_hessian":[3.7786997E3,2.6895408E3,1.0891587E3,1.5482499E3,1.141291E3,2.757789E2,8.133798E2,1.1074119E3,4.4083795E2,1.0425754E3,9.8715546E1,2.3657596E2,3.920293E1],"tree_param":{"num_deleted":"0","num_feature":"9","num_nodes":"13","size_leaf_vector":"1"}},{"base_weights":[-2.1408983E-3,-5.8479625E-1,9.936099E-1,-6.775984E-2,1.0363462E-1,8.377397E-1,1.04177296E-1,9.959739E-2,-6.678245E-2],"categories":[],"categories_nodes":[],"categories_segments":[],"categories_sizes":[],"default_left":[0,0,0,0,0,0,0,0,0],"id":11,"left_children":[1,3,5,-1,-1,7,-1,-1,-1],"loss_changes":[2.1804314E3,3.573921E2,9.541992E0,0E0,0E0,7.9897934E1,0E0,0E0,0E0],"parents":[2147483647,0,0,1,1,2,2,5,5],"right_children":[2,4,6,-1,-1,8,-1,-1,-1],"split_conditions":[9.4E1,8.3E1,1.01E2,-6.775984E-2,1.0363462E-1,1.9E1,1.04177296E-1,9.959739E-2,-6.678245E-2],"split_indices":[8,7,8,0,0,5,0,0,0],"split_type":[0,0,0,0,0,0,0,0,0],"sum_hessian":[3.7562E3,2.3698906E3,1.3863092E3,2.2421226E3,1.2776809E2,3.3158728E2,1.0547219E3,3.0035825E2,3.1229048E1],"tree_param":{"num_deleted":"0","num_feature":"9","num_nodes":"9","size_leaf_vector":"1"}},{"base_weights":[1.2537483E-3,6.570804E-1,-6.455828E-1,8.8977545E-1,-2.5454542E-1,-2.9050776E-1,-6.564741E-2,9.4811626E-2,-7.198267E-2,1.0944112E-1,-6.6933155E-2,1.1351941E-1,-6.5080024E-2],"categories":[],"categories_nodes":[],"categories_segments":[],"categories_sizes":[],"default_left":[0,0,0,0,0,0,0,0,0,0,0,0,0],"id":12,"left_children":[1,3,5,7,9,11,-1,-1,-1,-1,-1,-1,-1],"loss_changes":[1.5516171E3,3.85498E2,6.930542E0,1.3657312E2,2.0781247E2,2.9810287E1,0E0,0E0,0E0,0E0,0E0,0E0,0E0],"parents":[2147483647,0,0,1,1,2,2,3,3,4,4,5,5],"right_children":[2,4,6,8,10,12,-1,-1,-1,-1,-1,-1,-1],"split_conditions":[5.1E1,5.1E1,1E1,5.1E1,1.832032E6,1.832032E6,-6.564741E-2,9.4811626E-2,-7.198267E-2,1.0944112E-1,-6.6933155E-2,1.1351941E-1,-6.5080024E-2],"split_indices":[8,2,4,7,0,0,0,0,0,0,0,0,0],"split_type":[0,0,0,0,0,0,0,0,0,0,0,0,0],"sum_hessian":[3.65564E3,1.8151978E3,1.8404423E3,1.4461005E3,3.6909726E2,5.559572E1,1.7848466E3,1.3959158E3,5.018466E1,8.641669E1,2.8268057E2,1.0781568E1,4.481415E1],"tree_param":{"num_deleted":"0","num_feature":"9","num_nodes":"13","size_leaf_vector":"1"}},{"base_weights":[1.999316E-3,2.2866204E-1,-5.7708037E-1,-1.9575308E-1,7.87503E-1,-3.4648472E-1,-6.559276E-2,-5.4369874E-2,6.9022395E-2,9.162816E-2,-6.505284E-2,1.02268614E-1,-5.7306923E-2],"categories":[],"categories_nodes":[],"categories_segments":[],"categories_sizes":[],"default_left":[0,0,0,0,0,0,0,0,0,0,0,0,0],"id":13,"left_children":[1,3,5,7,9,11,-1,-1,-1,-1,-1,-1,-1],"loss_changes":[4.821837E2,6.263558E2,1.8562256E1,4.6320612E2,2.1167615E2,8.293421E1,0E0,0E0,0E0,0E0,0E0,0E0,0E0],"parents":[2147483647,0,0,1,1,2,2,3,3,4,4,5,5],"right_children":[2,4,6,8,10,12,-1,-1,-1,-1,-1,-1,-1],"split_conditions":[9.4E1,4.8E1,1.01E2,5.1E1,8.3E1,3.8E1,-6.559276E-2,-5.4369874E-2,6.9022395E-2,9.162816E-2,-6.505284E-2,1.02268614E-1,-5.7306923E-2],"split_indices":[8,8,8,2,7,4,0,0,0,0,0,0,0],"split_type":[0,0,0,0,0,0,0,0,0,0,0,0,0],"sum_hessian":[3.6716133E3,2.6391897E3,1.0324236E3,1.5003724E3,1.1388173E3,2.6443976E2,7.679838E2,1.0775698E3,4.2280264E2,1.0455491E3,9.3268196E1,3.7049442E1,2.273903E2],"tree_param":{"num_deleted":"0","num_feature":"9","num_nodes":"13","size_leaf_vector":"1"}},{"base_weights":[-3.2810299E-3,-5.674982E-1,9.1250974E-1,-6.5939546E-2,9.514831E-2,7.707194E-1,9.5622584E-2,-6.830072E-2,9.134372E-2],"categories":[],"categories_nodes":[],"categories_segments":[],"categories_sizes":[],"default_left":[0,0,0,0,0,0,0,0,0],"id":14,"left_children":[1,3,5,-1,-1,7,-1,-1,-1],"loss_changes":[1.8788273E3,3.1470062E2,7.8554688E0,0E0,0E0,6.946837E1,0E0,0E0,0E0],"parents":[2147483647,0,0,1,1,2,2,5,5],"right_children":[2,4,6,-1,-1,8,-1,-1,-1],"split_conditions":[9.4E1,8.3E1,1.01E2,-6.5939546E-2,9.514831E-2,3.8E1,9.5622584E-2,-6.830072E-2,9.134372E-2],"split_indices":[8,7,8,0,0,4,0,0,0],"split_type":[0,0,0,0,0,0,0,0,0],"sum_hessian":[3.634169E3,2.2489653E3,1.3852035E3,2.1212002E3,1.27765205E2,3.308245E2,1.0543789E3,2.9236376E1,3.0158813E2],"tree_param":{"num_deleted":"0","num_feature":"9","num_nodes":"9","size_leaf_vector":"1"}},{"base_weights":[1.8091558E-3,6.1267406E-1,-6.283413E-1,8.2463384E-1,-2.3767084E-1,-2.6578408E-1,-6.396645E-2,8.808398E-2,-7.170086E-2,1.0425742E-1,-6.540818E-2,1.0866065E-1,-6.3312165E-2],"categories":[],"categories_nodes":[],"categories_segments":[],"categories_sizes":[],"default_left":[0,0,0,0,0,0,0,0,0,0,0,0,0],"id":15,"left_children":[1,3,5,7,9,11,-1,-1,-1,-1,-1,-1,-1],"loss_changes":[1.3569854E3,3.228233E2,6.9535522E0,1.2480615E2,1.9149796E2,2.7644999E1,0E0,0E0,0E0,0E0,0E0,0E0,0E0],"parents":[2147483647,0,0,1,1,2,2,3,3,4,4,5,5],"right_children":[2,4,6,8,10,12,-1,-1,-1,-1,-1,-1,-1],"split_conditions":[5.1E1,5.1E1,1E1,5.1E1,1.832032E6,1.832032E6,-6.396645E-2,8.808398E-2,-7.170086E-2,1.0425742E-1,-6.540818E-2,1.0866065E-1,-6.3312165E-2],"split_indices":[8,2,4,7,0,0,0,0,0,0,0,0,0],"split_type":[0,0,0,0,0,0,0,0,0,0,0,0,0],"sum_hessian":[3.5232156E3,1.7889976E3,1.7342181E3,1.4320663E3,3.569313E2,5.3263134E1,1.680955E3,1.3821053E3,4.996084E1,8.7232735E1,2.6969858E2,1.0958872E1,4.2304264E1],"tree_param":{"num_deleted":"0","num_feature":"9","num_nodes":"13","size_leaf_vector":"1"}},{"base_weights":[2.7008383E-3,2.1603616E-1,-5.5954754E-1,-2.0462732E-1,7.0770437E-1,-3.3073595E-1,-6.39095E-2,-5.4045957E-2,5.8969673E-2,8.154422E-2,-6.33542E-2,-5.59881E-2,9.1410466E-2],"categories":[],"categories_nodes":[],"categories_segments":[],"categories_sizes":[],"default_left":[0,0,0,0,0,0,0,0,0,0,0,0,0],"id":16,"left_children":[1,3,5,7,9,11,-1,-1,-1,-1,-1,-1,-1],"loss_changes":[4.2560986E2,5.3216205E2,1.7553406E1,3.703182E2,1.7193585E2,7.2923615E1,0E0,0E0,0E0,0E0,0E0,0E0,0E0],"parents":[2147483647,0,0,1,1,2,2,3,3,4,4,5,5],"right_children":[2,4,6,8,10,12,-1,-1,-1,-1,-1,-1,-1],"split_conditions":[9.4E1,4.6E1,1.01E2,5E1,8.3E1,1.9E1,-6.39095E-2,-5.4045957E-2,5.8969673E-2,8.154422E-2,-6.33542E-2,-5.59881E-2,9.1410466E-2],"split_indices":[8,8,8,2,7,5,0,0,0,0,0,0,0],"split_type":[0,0,0,0,0,0,0,0,0,0,0,0,0],"sum_hessian":[3.5462957E3,2.571283E3,9.7501263E2,1.3860146E3,1.1852682E3,2.5285478E2,7.2215784E2,9.743773E2,4.116374E2,1.0975017E3,8.776659E1,2.1401082E2,3.8843967E1],"tree_param":{"num_deleted":"0","num_feature":"9","num_nodes":"13","size_leaf_vector":"1"}},{"base_weights":[-4.567362E-3,-5.5249727E-1,8.474203E-1,-6.434536E-2,8.838694E-2,7.15285E-1,8.882074E-2,8.466184E-2,-6.4225845E-2],"categories":[],"categories_nodes":[],"categories_segments":[],"categories_sizes":[],"default_left":[0,0,0,0,0,0,0,0,0],"id":17,"left_children":[1,3,5,-1,-1,7,-1,-1,-1],"loss_changes":[1.6313998E3,2.784312E2,6.736328E0,0E0,0E0,5.8980484E1,0E0,0E0,0E0],"parents":[2147483647,0,0,1,1,2,2,5,5],"right_children":[2,4,6,-1,-1,8,-1,-1,-1],"split_conditions":[9.4E1,8.3E1,1.01E2,-6.434536E-2,8.838694E-2,1.9E1,8.882074E-2,8.466184E-2,-6.4225845E-2],"split_indices":[8,7,8,0,0,5,0,0,0],"split_type":[0,0,0,0,0,0,0,0,0],"sum_hessian":[3.492634E3,2.1258254E3,1.3668085E3,1.9997458E3,1.26079636E2,3.267609E2,1.0400476E3,2.9828058E2,2.848032E1],"tree_param":{"num_deleted":"0","num_feature":"9","num_nodes":"9","size_leaf_vector":"1"}},{"base_weights":[2.5652626E-3,5.762103E-1,-6.1306626E-1,7.7224326E-1,-2.222589E-1,-2.4239749E-1,-6.248681E-2,8.267298E-2,-7.109229E-2,9.962841E-2,-6.406067E-2,1.042754E-1,-6.1753582E-2],"categories":[],"categories_nodes":[],"categories_segments":[],"categories_sizes":[],"default_left":[0,0,0,0,0,0,0,0,0,0,0,0,0],"id":18,"left_children":[1,3,5,7,9,11,-1,-1,-1,-1,-1,-1,-1],"loss_changes":[1.1936079E3,2.740276E2,6.9802856E0,1.1412439E2,1.7684128E2,2.568404E1,0E0,0E0,0E0,0E0,0E0,0E0,0E0],"parents":[2147483647,0,0,1,1,2,2,3,3,4,4,5,5],"right_children":[2,4,6,8,10,12,-1,-1,-1,-1,-1,-1,-1],"split_conditions":[5.1E1,5.1E1,1E1,5.1E1,1.832032E6,1.832032E6,-6.248681E-2,8.267298E-2,-7.109229E-2,9.962841E-2,-6.406067E-2,1.042754E-1,-6.1753582E-2],"split_indices":[8,2,4,7,0,0,0,0,0,0,0,0,0],"split_type":[0,0,0,0,0,0,0,0,0,0,0,0,0],"sum_hessian":[3.3778508E3,1.7485847E3,1.6292661E3,1.403936E3,3.446488E2,5.093861E1,1.5783275E3,1.3546145E3,4.932143E1,8.773042E1,2.5691837E2,1.1107345E1,3.9831264E1],"tree_param":{"num_deleted":"0","num_feature":"9","num_nodes":"13","size_leaf_vector":"1"}},{"base_weights":[3.4126686E-3,2.050415E-1,-5.4397446E-1,-1.6623124E-1,7.0036644E-1,-3.167523E-1,-6.241971E-2,-5.2016567E-2,5.6872524E-2,8.110774E-2,-6.184242E-2,9.095496E-2,-5.354798E-2],"categories":[],"categories_nodes":[],"categories_segments":[],"categories_sizes":[],"default_left":[0,0,0,0,0,0,0,0,0,0,0,0,0],"id":19,"left_children":[1,3,5,7,9,11,-1,-1,-1,-1,-1,-1,-1],"loss_changes":[3.764443E2,4.5850958E2,1.6538696E1,3.7111163E2,1.5644781E2,6.529241E1,0E0,0E0,0E0,0E0,0E0,0E0,0E0],"parents":[2147483647,0,0,1,1,2,2,3,3,4,4,5,5],"right_children":[2,4,6,8,10,12,-1,-1,-1,-1,-1,-1,-1],"split_conditions":[9.4E1,5E1,1.01E2,5E1,8.3E1,3.8E1,-6.241971E-2,-5.2016567E-2,5.6872524E-2,8.110774E-2,-6.184242E-2,9.095496E-2,-5.354798E-2],"split_indices":[8,8,8,2,7,4,0,0,0,0,0,0,0],"split_type":[0,0,0,0,0,0,0,0,0,0,0,0,0],"sum_hessian":[3.4087678E3,2.4916133E3,9.171547E2,1.4245217E3,1.0670914E3,2.4060742E2,6.765473E2,9.6169073E2,4.6283105E2,9.848033E2,8.228814E1,3.594157E1,2.0466585E2],"tree_param":{"num_deleted":"0","num_feature":"9","num_nodes":"13","size_leaf_vector":"1"}},{"base_weights":[-6.082807E-3,-5.394935E-1,7.945289E-1,-6.294726E-2,8.290087E-2,6.697241E-1,8.331271E-2,-6.652601E-2,7.917004E-2],"categories":[],"categories_nodes":[],"categories_segments":[],"categories_sizes":[],"default_left":[0,0,0,0,0,0,0,0,0],"id":20,"left_children":[1,3,5,-1,-1,7,-1,-1,-1],"loss_changes":[1.4258999E3,2.472677E2,5.873413E0,0E0,0E0,5.2709656E1,0E0,0E0,0E0],"parents":[2147483647,0,0,1,1,2,2,5,5],"right_children":[2,4,6,-1,-1,8,-1,-1,-1],"split_conditions":[9.4E1,8.3E1,1.01E2,-6.294726E-2,8.290087E-2,3.8E1,8.331271E-2,-6.652601E-2,7.917004E-2],"split_indices":[8,7,8,0,0,4,0,0,0],"split_type":[0,0,0,0,0,0,0,0,0],"sum_hessian":[3.3369119E3,2.0028387E3,1.334073E3,1.879783E3,1.2305579E2,3.194625E2,1.01461053E3,2.6372417E1,2.930901E2],"tree_param":{"num_deleted":"0","num_feature":"9","num_nodes":"9","size_leaf_vector":"1"}},{"base_weights":[3.2291661E-3,5.441965E-1,-5.9917694E-1,7.270449E-1,-2.0733853E-1,-2.1843041E-1,-6.1154395E-2,7.8072004E-2,-7.0606366E-2,9.564238E-2,-6.284433E-2,1.0065013E-1,-6.0320556E-2],"categories":[],"categories_nodes":[],"categories_segments":[],"categories_sizes":[],"default_left":[0,0,0,0,0,0,0,0,0,0,0,0,0],"id":21,"left_children":[1,3,5,7,9,11,-1,-1,-1,-1,-1,-1,-1],"loss_changes":[1.0507919E3,2.3360254E2,7.050049E0,1.0567566E2,1.6390343E2,2.396106E1,0E0,0E0,0E0,0E0,0E0,0E0,0E0],"parents":[2147483647,0,0,1,1,2,2,3,3,4,4,5,5],"right_children":[2,4,6,8,10,12,-1,-1,-1,-1,-1,-1,-1],"split_conditions":[5.1E1,5.1E1,1E1,5.1E1,1.832032E6,1.832032E6,-6.1154395E-2,7.8072004E-2,-7.0606366E-2,9.564238E-2,-6.284433E-2,1.0065013E-1,-6.0320556E-2],"split_indices":[8,2,4,7,0,0,0,0,0,0,0,0,0],"split_type":[0,0,0,0,0,0,0,0,0,0,0,0,0],"sum_hessian":[3.2224543E3,1.6978568E3,1.5245974E3,1.3656313E3,3.3222543E2,4.854971E1,1.4760477E3,1.3167688E3,4.8862576E1,8.7935684E1,2.4428973E2,1.121881E1,3.73309E1],"tree_param":{"num_deleted":"0","num_feature":"9","num_nodes":"13","size_leaf_vector":"1"}},{"base_weights":[4.182543E-3,1.9563936E-1,-5.296584E-1,-1.487299E-1,6.729604E-1,-3.0318376E-1,-6.1098784E-2,5.1134612E-2,-5.0281074E-2,7.793092E-2,-6.049334E-2,-5.2431572E-2,8.2571566E-2],"categories":[],"categories_nodes":[],"categories_segments":[],"categories_sizes":[],"default_left":[0,0,0,0,0,0,0,0,0,0,0,0,0],"id":22,"left_children":[1,3,5,7,9,11,-1,-1,-1,-1,-1,-1,-1],"loss_changes":[3.3346344E2,3.9482376E2,1.5677902E1,3.264781E2,1.3726956E2,5.7735428E1,0E0,0E0,0E0,0E0,0E0,0E0,0E0],"parents":[2147483647,0,0,1,1,2,2,3,3,4,4,5,5],"right_children":[2,4,6,8,10,12,-1,-1,-1,-1,-1,-1,-1],"split_conditions":[9.4E1,5.1E1,1.01E2,1.3133554E6,8.3E1,1.9E1,-6.1098784E-2,5.1134612E-2,-5.0281074E-2,7.793092E-2,-6.049334E-2,-5.2431572E-2,8.2571566E-2],"split_indices":[8,8,8,1,7,5,0,0,0,0,0,0,0],"split_type":[0,0,0,0,0,0,0,0,0,0,0,0,0],"sum_hessian":[3.2605994E3,2.4003655E3,8.60234E2,1.3947755E3,1.0055899E3,2.285444E2,6.316896E2,4.868142E2,9.0796124E2,9.2869244E2,7.689746E1,1.9155719E2,3.6987206E1],"tree_param":{"num_deleted":"0","num_feature":"9","num_nodes":"13","size_leaf_vector":"1"}},{"base_weights":[-7.580744E-3,-5.2807015E-1,7.505689E-1,-6.170779E-2,7.838217E-2,6.305823E-1,7.8785025E-2,-6.476222E-2,7.436173E-2],"categories":[],"categories_nodes":[],"categories_segments":[],"categories_sizes":[],"default_left":[0,0,0,0,0,0,0,0,0],"id":23,"left_children":[1,3,5,-1,-1,7,-1,-1,-1],"loss_changes":[1.2523464E3,2.2021313E2,5.2821045E0,0E0,0E0,4.5452652E1,0E0,0E0,0E0],"parents":[2147483647,0,0,1,1,2,2,5,5],"right_children":[2,4,6,-1,-1,8,-1,-1,-1],"split_conditions":[9.4E1,8.3E1,1.01E2,-6.170779E-2,7.838217E-2,3.8E1,7.8785025E-2,-6.476222E-2,7.436173E-2],"split_indices":[8,7,8,0,0,4,0,0,0],"split_type":[0,0,0,0,0,0,0,0,0],"sum_hessian":[3.171635E3,1.8807529E3,1.2908822E3,1.7617532E3,1.18999756E2,3.1025784E2,9.806243E2,2.4823477E1,2.854344E2],"tree_param":{"num_deleted":"0","num_feature":"9","num_nodes":"9","size_leaf_vector":"1"}},{"base_weights":[3.9425925E-3,5.153987E-1,-5.8661884E-1,6.908042E-1,-2.0654401E-1,-5.9980255E-2,-1.9886735E-1,7.431103E-2,-6.9363706E-2,8.861416E-2,-6.187696E-2,1.01321936E-1,-5.878351E-2],"categories":[],"categories_nodes":[],"categories_segments":[],"categories_sizes":[],"default_left":[0,0,0,0,0,0,0,0,0,0,0,0,0],"id":24,"left_children":[1,3,5,7,9,-1,11,-1,-1,-1,-1,-1,-1],"loss_changes":[9.261799E2,2.0822888E2,7.155731E0,9.626611E1,1.4557547E2,0E0,2.3363348E1,0E0,0E0,0E0,0E0,0E0,0E0],"parents":[2147483647,0,0,1,1,2,2,3,3,4,4,6,6],"right_children":[2,4,6,8,10,-1,12,-1,-1,-1,-1,-1,-1],"split_conditions":[5.1E1,5.1E1,6.7E1,5.1E1,1.832032E6,-5.9980255E-2,1.832032E6,7.431103E-2,-6.9363706E-2,8.861416E-2,-6.187696E-2,1.01321936E-1,-5.878351E-2],"split_indices":[8,2,2,7,0,0,0,0,0,0,0,0,0],"split_type":[0,0,0,0,0,0,0,0,0,0,0,0,0],"sum_hessian":[3.0643503E3,1.6422264E3,1.4221239E3,1.3212535E3,3.209728E2,1.3748322E3,4.7291725E1,1.2735985E3,4.7655106E1,8.7606026E1,2.3336678E2,1.1099375E1,3.6192352E1],"tree_param":{"num_deleted":"0","num_feature":"9","num_nodes":"13","size_leaf_vector":"1"}},{"base_weights":[4.9826317E-3,1.8699713E-1,-5.16709E-1,-1.4777903E-1,6.2994236E-1,-2.9063898E-1,-5.9925474E-2,-4.75171E-2,5.348311E-2,7.255874E-2,-5.9285898E-2,-5.0771564E-2,7.910367E-2],"categories":[],"categories_nodes":[],"categories_segments":[],"categories_sizes":[],"default_left":[0,0,0,0,0,0,0,0,0,0,0,0,0],"id":25,"left_children":[1,3,5,7,9,11,-1,-1,-1,-1,-1,-1,-1],"loss_changes":[2.956642E2,3.4238934E2,1.4854935E1,2.9424365E2,1.1666324E2,5.143785E1,0E0,0E0,0E0,0E0,0E0,0E0,0E0],"parents":[2147483647,0,0,1,1,2,2,3,3,4,4,5,5],"right_children":[2,4,6,8,10,12,-1,-1,-1,-1,-1,-1,-1],"split_conditions":[9.4E1,5E1,1.01E2,5.1E1,8.3E1,1.9E1,-5.9925474E-2,-4.75171E-2,5.348311E-2,7.255874E-2,-5.9285898E-2,-5.0771564E-2,7.910367E-2],"split_indices":[8,8,8,2,7,5,0,0,0,0,0,0,0],"split_type":[0,0,0,0,0,0,0,0,0,0,0,0,0],"sum_hessian":[3.1116975E3,2.3073286E3,8.0436896E2,1.3145007E3,9.9282794E2,2.1635443E2,5.880145E2,8.88611E2,4.258897E2,9.211816E2,7.164634E1,1.8063435E2,3.5720078E1],"tree_param":{"num_deleted":"0","num_feature":"9","num_nodes":"13","size_leaf_vector":"1"}},{"base_weights":[-9.191085E-3,-5.179547E-1,7.1372885E-1,-6.0595542E-2,7.461349E-2,5.9711426E-1,7.5017005E-2,7.065949E-2,-6.1917134E-2],"categories":[],"categories_nodes":[],"categories_segments":[],"categories_sizes":[],"default_left":[0,0,0,0,0,0,0,0,0],"id":26,"left_children":[1,3,5,-1,-1,7,-1,-1,-1],"loss_changes":[1.104627E3,1.9654495E2,4.8240356E0,0E0,0E0,4.042199E1,0E0,0E0,0E0],"parents":[2147483647,0,0,1,1,2,2,5,5],"right_children":[2,4,6,-1,-1,8,-1,-1,-1],"split_conditions":[9.4E1,8.3E1,1.01E2,-6.0595542E-2,7.461349E-2,1.9E1,7.5017005E-2,7.065949E-2,-6.1917134E-2],"split_indices":[8,7,8,0,0,5,0,0,0],"split_type":[0,0,0,0,0,0,0,0,0],"sum_hessian":[3.001369E3,1.761779E3,1.2395898E3,1.6476006E3,1.14178474E2,2.9927463E2,9.403152E2,2.7494525E2,2.4329395E1],"tree_param":{"num_deleted":"0","num_feature":"9","num_nodes":"9","size_leaf_vector":"1"}},{"base_weights":[4.7349674E-3,4.9139786E-1,-5.753083E-1,6.570677E-1,-1.9159876E-1,-1.7047685E-1,-5.890376E-2,7.097625E-2,-6.9031216E-2,8.5883915E-2,-6.0834624E-2,9.480523E-2,-5.784749E-2],"categories":[],"categories_nodes":[],"categories_segments":[],"categories_sizes":[],"default_left":[0,0,0,0,0,0,0,0,0,0,0,0,0],"id":27,"left_children":[1,3,5,7,9,11,-1,-1,-1,-1,-1,-1,-1],"loss_changes":[8.195073E2,1.7875018E2,7.261139E0,9.070813E1,1.3576642E2,2.1017069E1,0E0,0E0,0E0,0E0,0E0,0E0,0E0],"parents":[2147483647,0,0,1,1,2,2,3,3,4,4,5,5],"right_children":[2,4,6,8,10,12,-1,-1,-1,-1,-1,-1,-1],"split_conditions":[5.1E1,5.1E1,1E1,5.1E1,1.832032E6,1.832032E6,-5.890376E-2,7.097625E-2,-6.9031216E-2,8.5883915E-2,-6.0834624E-2,9.480523E-2,-5.784749E-2],"split_indices":[8,2,4,7,0,0,0,0,0,0,0,0,0],"split_type":[0,0,0,0,0,0,0,0,0,0,0,0,0],"sum_hessian":[2.9011133E3,1.5776227E3,1.3234905E3,1.2696824E3,3.0794028E2,4.3852196E1,1.2796383E3,1.2223507E3,4.733176E1,8.716774E1,2.2077252E2,1.1366686E1,3.248551E1],"tree_param":{"num_deleted":"0","num_feature":"9","num_nodes":"13","size_leaf_vector":"1"}},{"base_weights":[5.781029E-3,1.7973974E-1,-5.049749E-1,-1.3952574E-1,6.0196406E-1,-2.7910534E-1,-5.888146E-2,4.6730563E-2,-4.8569754E-2,6.918807E-2,-5.820184E-2,8.121945E-2,-4.8714355E-2],"categories":[],"categories_nodes":[],"categories_segments":[],"categories_sizes":[],"default_left":[0,0,0,0,0,0,0,0,0,0,0,0,0],"id":28,"left_children":[1,3,5,7,9,11,-1,-1,-1,-1,-1,-1,-1],"loss_changes":[2.6266818E2,2.973478E2,1.4058731E1,2.6417914E2,1.0150583E2,4.6987602E1,0E0,0E0,0E0,0E0,0E0,0E0,0E0],"parents":[2147483647,0,0,1,1,2,2,3,3,4,4,5,5],"right_children":[2,4,6,8,10,12,-1,-1,-1,-1,-1,-1,-1],"split_conditions":[9.4E1,5E1,1.01E2,1.3133554E6,8.3E1,3.8E1,-5.888146E-2,4.6730563E-2,-4.8569754E-2,6.918807E-2,-5.820184E-2,8.121945E-2,-4.8714355E-2],"split_indices":[8,8,8,1,7,4,0,0,0,0,0,0,0],"split_type":[0,0,0,0,0,0,0,0,0,0,0,0,0],"sum_hessian":[2.954274E3,2.204194E3,7.5007983E2,1.2555089E3,9.486851E2,2.0422188E2,5.45858E2,4.559278E2,7.995811E2,8.821097E2,6.6575485E1,3.223318E1,1.719887E2],"tree_param":{"num_deleted":"0","num_feature":"9","num_nodes":"13","size_leaf_vector":"1"}},{"base_weights":[-1.0895199E-2,-5.092568E-1,6.8256104E-1,-5.9629798E-2,7.143634E-2,5.683367E-1,7.184825E-2,-6.487509E-2,6.722721E-2],"categories":[],"categories_nodes":[],"categories_segments":[],"categories_sizes":[],"default_left":[0,0,0,0,0,0,0,0,0],"id":29,"left_children":[1,3,5,-1,-1,7,-1,-1,-1],"loss_changes":[9.781376E2,1.758197E2,4.447754E0,0E0,0E0,3.6859306E1,0E0,0E0,0E0],"parents":[2147483647,0,0,1,1,2,2,5,5],"right_children":[2,4,6,-1,-1,8,-1,-1,-1],"split_conditions":[9.4E1,8.3E1,1.01E2,-5.9629798E-2,7.143634E-2,3.8E1,7.184825E-2,-6.487509E-2,6.722721E-2],"split_indices":[8,7,8,0,0,4,0,0,0],"split_type":[0,0,0,0,0,0,0,0,0],"sum_hessian":[2.8283196E3,1.6458053E3,1.1825143E3,1.5369857E3,1.08819565E2,2.8693375E2,8.955805E2,2.2162935E1,2.647708E2],"tree_param":{"num_deleted":"0","num_feature":"9","num_nodes":"9","size_leaf_vector":"1"}},{"base_weights":[5.6135277E-3,4.696113E-1,-5.6505907E-1,6.3053936E-1,-1.9186121E-1,-5.7974447E-2,-1.5118642E-1,6.826475E-2,-6.789341E-2,8.054276E-2,-6.0028672E-2,9.586426E-2,-5.6607973E-2],"categories":[],"categories_nodes":[],"categories_segments":[],"categories_sizes":[],"default_left":[0,0,0,0,0,0,0,0,0,0,0,0,0],"id":30,"left_children":[1,3,5,7,9,-1,11,-1,-1,-1,-1,-1,-1],"loss_changes":[7.262281E2,1.6114725E2,7.387787E0,8.3499725E1,1.2136471E2,0E0,2.057237E1,0E0,0E0,0E0,0E0,0E0,0E0],"parents":[2147483647,0,0,1,1,2,2,3,3,4,4,6,6],"right_children":[2,4,6,8,10,-1,12,-1,-1,-1,-1,-1,-1],"split_conditions":[5.1E1,5.1E1,6.7E1,5.1E1,1.832032E6,-5.7974447E-2,1.832032E6,6.826475E-2,-6.789341E-2,8.054276E-2,-6.0028672E-2,9.586426E-2,-5.6607973E-2],"split_indices":[8,2,2,7,0,0,0,0,0,0,0,0,0],"split_type":[0,0,0,0,0,0,0,0,0,0,0,0,0],"sum_hessian":[2.7406462E3,1.5117015E3,1.2289447E3,1.2159281E3,2.9577347E2,1.1864454E3,4.249928E1,1.1698545E3,4.6073586E1,8.565356E1,2.101199E2,1.1207888E1,3.129139E1],"tree_param":{"num_deleted":"0","num_feature":"9","num_nodes":"13","size_leaf_vector":"1"}},{"base_weights":[6.590224E-3,1.7286678E-1,-4.938778E-1,-1.2346442E-1,5.8853364E-1,-2.6743457E-1,-5.7950884E-2,-4.3238916E-2,4.9162533E-2,6.772118E-2,-5.7225164E-2,-4.7706548E-2,7.419888E-2],"categories":[],"categories_nodes":[],"categories_segments":[],"categories_sizes":[],"default_left":[0,0,0,0,0,0,0,0,0,0,0,0,0],"id":31,"left_children":[1,3,5,7,9,11,-1,-1,-1,-1,-1,-1,-1],"loss_changes":[2.3330309E2,2.5927966E2,1.3402451E1,2.3381306E2,9.056064E1,4.134344E1,0E0,0E0,0E0,0E0,0E0,0E0,0E0],"parents":[2147483647,0,0,1,1,2,2,3,3,4,4,5,5],"right_children":[2,4,6,8,10,12,-1,-1,-1,-1,-1,-1,-1],"split_conditions":[9.4E1,5.1E1,1.01E2,5.1E1,8.3E1,1.9E1,-5.7950884E-2,-4.3238916E-2,4.9162533E-2,6.772118E-2,-5.7225164E-2,-4.7706548E-2,7.419888E-2],"split_indices":[8,8,8,2,7,5,0,0,0,0,0,0,0],"split_type":[0,0,0,0,0,0,0,0,0,0,0,0,0],"sum_hessian":[2.8015552E3,2.1033787E3,6.981764E2,1.22837E3,8.750087E2,1.9270625E2,5.0547015E2,8.178882E2,4.104818E2,8.1329376E2,6.1714977E1,1.6000482E2,3.270144E1],"tree_param":{"num_deleted":"0","num_feature":"9","num_nodes":"13","size_leaf_vector":"1"}},{"base_weights":[-1.2739056E-2,-5.015423E-1,6.556614E-1,-5.8758944E-2,6.873327E-2,5.4239047E-1,6.9159694E-2,6.344832E-2,-8.260485E-2],"categories":[],"categories_nodes":[],"categories_segments":[],"categories_sizes":[],"default_left":[0,0,0,0,0,0,0,0,0],"id":32,"left_children":[1,3,5,-1,-1,7,-1,-1,-1],"loss_changes":[8.687226E2,1.5751456E2,4.196594E0,0E0,0E0,3.5198082E1,0E0,0E0,0E0],"parents":[2147483647,0,0,1,1,2,2,5,5],"right_children":[2,4,6,-1,-1,8,-1,-1,-1],"split_conditions":[9.4E1,8.3E1,1.01E2,-5.8758944E-2,6.873327E-2,1.8E1,6.9159694E-2,6.344832E-2,-8.260485E-2],"split_indices":[8,7,8,0,0,3,0,0,0],"split_type":[0,0,0,0,0,0,0,0,0],"sum_hessian":[2.656944E3,1.5347942E3,1.12215E3,1.4316793E3,1.03114815E2,2.741395E2,8.480105E2,2.5735635E2,1.6783129E1],"tree_param":{"num_deleted":"0","num_feature":"9","num_nodes":"9","size_leaf_vector":"1"}},{"base_weights":[6.3728476E-3,4.5036757E-1,-5.5567163E-1,6.036986E-1,-1.7746131E-1,-1.2299655E-1,-5.710728E-2,6.5677546E-2,-6.754389E-2,7.853724E-2,-5.9152026E-2,9.006611E-2,-5.5804875E-2],"categories":[],"categories_nodes":[],"categories_segments":[],"categories_sizes":[],"default_left":[0,0,0,0,0,0,0,0,0,0,0,0,0],"id":33,"left_children":[1,3,5,7,9,11,-1,-1,-1,-1,-1,-1,-1],"loss_changes":[6.4437146E2,1.389784E2,7.523651E0,7.917529E1,1.1365986E2,1.8514357E1,0E0,0E0,0E0,0E0,0E0,0E0,0E0],"parents":[2147483647,0,0,1,1,2,2,3,3,4,4,5,5],"right_children":[2,4,6,8,10,12,-1,-1,-1,-1,-1,-1,-1],"split_conditions":[5.1E1,5.1E1,1E1,5.1E1,1.832032E6,1.832032E6,-5.710728E-2,6.5677546E-2,-6.754389E-2,7.853724E-2,-5.9152026E-2,9.006611E-2,-5.5804875E-2],"split_indices":[8,2,4,7,0,0,0,0,0,0,0,0,0],"split_type":[0,0,0,0,0,0,0,0,0,0,0,0,0],"sum_hessian":[2.5801846E3,1.4415841E3,1.1386003E3,1.1586517E3,2.829324E2,3.9444515E1,1.0991559E3,1.112957E3,4.5694736E1,8.481371E1,1.981187E2,1.1444918E1,2.79996E1],"tree_param":{"num_deleted":"0","num_feature":"9","num_nodes":"13","size_leaf_vector":"1"}},{"base_weights":[7.485411E-3,1.670837E-1,-4.8308766E-1,-1.242515E-1,5.5784106E-1,-2.550749E-1,-5.7120007E-2,4.2925145E-2,-4.5762595E-2,6.389152E-2,-5.6341983E-2,7.73097E-2,-4.5865864E-2],"categories":[],"categories_nodes":[],"categories_segments":[],"categories_sizes":[],"default_left":[0,0,0,0,0,0,0,0,0,0,0,0,0],"id":34,"left_children":[1,3,5,7,9,11,-1,-1,-1,-1,-1,-1,-1],"loss_changes":[2.0732329E2,2.2751862E2,1.2913467E1,2.1155055E2,7.795181E1,3.865609E1,0E0,0E0,0E0,0E0,0E0,0E0,0E0],"parents":[2147483647,0,0,1,1,2,2,3,3,4,4,5,5],"right_children":[2,4,6,8,10,12,-1,-1,-1,-1,-1,-1,-1],"split_conditions":[9.4E1,5E1,1.01E2,1.3133554E6,8.3E1,3.8E1,-5.7120007E-2,4.2925145E-2,-4.5762595E-2,6.389152E-2,-5.6341983E-2,7.73097E-2,-4.5865864E-2],"split_indices":[8,8,8,1,7,4,0,0,0,0,0,0,0],"split_type":[0,0,0,0,0,0,0,0,0,0,0,0,0],"sum_hessian":[2.645958E3,1.9969493E3,6.4900867E2,1.1444036E3,8.525457E2,1.8198141E2,4.6702728E2,4.300696E2,7.14334E2,7.954592E2,5.708649E1,2.9615408E1,1.5236601E2],"tree_param":{"num_deleted":"0","num_feature":"9","num_nodes":"13","size_leaf_vector":"1"}},{"base_weights":[-1.456748E-2,-4.948663E-1,6.319514E-1,-5.7998504E-2,6.641437E-2,5.1787275E-1,6.686097E-2,6.076054E-2,-8.144678E-2],"categories":[],"categories_nodes":[],"categories_segments":[],"categories_sizes":[],"default_left":[0,0,0,0,0,0,0,0,0],"id":35,"left_children":[1,3,5,-1,-1,7,-1,-1,-1],"loss_changes":[7.7330133E2,1.4134348E2,4.0928345E0,0E0,0E0,3.1887962E1,0E0,0E0,0E0],"parents":[2147483647,0,0,1,1,2,2,5,5],"right_children":[2,4,6,-1,-1,8,-1,-1,-1],"split_conditions":[9.4E1,8.3E1,1.01E2,-5.7998504E-2,6.641437E-2,1.8E1,6.686097E-2,6.076054E-2,-8.144678E-2],"split_indices":[8,7,8,0,0,3,0,0,0],"split_type":[0,0,0,0,0,0,0,0,0],"sum_hessian":[2.4883179E3,1.427823E3,1.060495E3,1.3306019E3,9.722096E1,2.6158395E2,7.98911E2,2.4558766E2,1.5996284E1],"tree_param":{"num_deleted":"0","num_feature":"9","num_nodes":"9","size_leaf_vector":"1"}},{"base_weights":[7.297604E-3,4.3292037E-1,-5.471185E-1,5.8307594E-1,-1.785533E-1,-5.6364447E-2,-1.0323441E-1,6.1765112E-2,-1.422403E-1,7.435851E-2,-5.8484536E-2,9.144387E-2,-5.4785002E-2],"categories":[],"categories_nodes":[],"categories_segments":[],"categories_sizes":[],"default_left":[0,0,0,0,0,0,0,0,0,0,0,0,0],"id":36,"left_children":[1,3,5,7,9,-1,11,-1,-1,-1,-1,-1,-1],"loss_changes":[5.729028E2,1.2620813E2,7.676483E0,7.73533E1,1.0216939E2,0E0,1.8179502E1,0E0,0E0,0E0,0E0,0E0,0E0],"parents":[2147483647,0,0,1,1,2,2,3,3,4,4,6,6],"right_children":[2,4,6,8,10,-1,12,-1,-1,-1,-1,-1,-1],"split_conditions":[5.1E1,5.1E1,6.7E1,5E1,1.832032E6,-5.6364447E-2,1.832032E6,6.1765112E-2,-1.422403E-1,7.435851E-2,-5.8484536E-2,9.144387E-2,-5.4785002E-2],"split_indices":[8,2,2,4,0,0,0,0,0,0,0,0,0],"split_type":[0,0,0,0,0,0,0,0,0,0,0,0,0],"sum_hessian":[2.4258374E3,1.3724403E3,1.0533972E3,1.1019003E3,2.7054E2,1.0153263E3,3.807087E1,1.0839054E3,1.7994867E1,8.248905E1,1.8805095E2,1.1254331E1,2.681654E1],"tree_param":{"num_deleted":"0","num_feature":"9","num_nodes":"13","size_leaf_vector":"1"}},{"base_weights":[8.353217E-3,1.6144817E-1,-4.7270975E-1,-1.168293E-1,5.3924376E-1,-2.4266358E-1,-5.6376863E-2,-4.2975906E-2,4.2792004E-2,6.1671346E-2,-5.5540025E-2,7.560418E-2,-4.4508595E-2],"categories":[],"categories_nodes":[],"categories_segments":[],"categories_sizes":[],"default_left":[0,0,0,0,0,0,0,0,0,0,0,0,0],"id":37,"left_children":[1,3,5,7,9,11,-1,-1,-1,-1,-1,-1,-1],"loss_changes":[1.8412427E2,1.994415E2,1.2506241E1,1.864863E2,6.8571655E1,3.529222E1,0E0,0E0,0E0,0E0,0E0,0E0,0E0],"parents":[2147483647,0,0,1,1,2,2,3,3,4,4,5,5],"right_children":[2,4,6,8,10,12,-1,-1,-1,-1,-1,-1,-1],"split_conditions":[9.4E1,5E1,1.01E2,5E1,8.3E1,3.8E1,-5.6376863E-2,-4.2975906E-2,4.2792004E-2,6.1671346E-2,-5.5540025E-2,7.560418E-2,-4.4508595E-2],"split_indices":[8,8,8,2,7,4,0,0,0,0,0,0,0],"split_type":[0,0,0,0,0,0,0,0,0,0,0,0,0],"sum_hessian":[2.498011E3,1.8954587E3,6.025522E2,1.0918859E3,8.035728E2,1.7191089E2,4.3064133E2,6.9363837E2,3.9824756E2,7.5086926E2,5.270359E1,2.8510702E1,1.4340019E2],"tree_param":{"num_deleted":"0","num_feature":"9","num_nodes":"13","size_leaf_vector":"1"}},{"base_weights":[-1.6587198E-2,-4.8896146E-1,6.111093E-1,-5.7310738E-2,6.441087E-2,4.95454E-1,6.488257E-2,5.8456015E-2,-8.090327E-2],"categories":[],"categories_nodes":[],"categories_segments":[],"categories_sizes":[],"default_left":[0,0,0,0,0,0,0,0,0],"id":38,"left_children":[1,3,5,-1,-1,7,-1,-1,-1],"loss_changes":[6.9003284E2,1.2697275E2,4.0376587E0,0E0,0E0,2.9529793E1,0E0,0E0,0E0],"parents":[2147483647,0,0,1,1,2,2,5,5],"right_children":[2,4,6,-1,-1,8,-1,-1,-1],"split_conditions":[9.4E1,8.3E1,1.01E2,-5.7310738E-2,6.441087E-2,1.8E1,6.488257E-2,5.8456015E-2,-8.090327E-2],"split_indices":[8,7,8,0,0,3,0,0,0],"split_type":[0,0,0,0,0,0,0,0,0],"sum_hessian":[2.3251926E3,1.3268728E3,9.983198E2,1.2356064E3,9.12664E1,2.4897781E2,7.49342E2,2.335748E2,1.5403013E1],"tree_param":{"num_deleted":"0","num_feature":"9","num_nodes":"9","size_leaf_vector":"1"}},{"base_weights":[8.158527E-3,4.1613957E-1,-5.392345E-1,5.596489E-1,-1.6546991E-1,-7.598174E-2,-5.5664194E-1,6.1805706E-2,-6.849902E-2,7.275788E-2,-5.7760727E-2,8.607679E-2,-5.4086834E-2,-4.58248E-2,-5.5979133E-2],"categories":[],"categories_nodes":[],"categories_segments":[],"categories_sizes":[],"default_left":[0,0,0,0,0,0,0,0,0,0,0,0,0,0,0],"id":39,"left_children":[1,3,5,7,9,11,13,-1,-1,-1,-1,-1,-1,-1,-1],"loss_changes":[5.0941452E2,1.09177765E2,7.8128357E0,7.664676E1,9.590543E1,1.6332596E1,3.4362793E-2,0E0,0E0,0E0,0E0,0E0,0E0,0E0,0E0],"parents":[2147483647,0,0,1,1,2,2,3,3,4,4,5,5,6,6],"right_children":[2,4,6,8,10,12,14,-1,-1,-1,-1,-1,-1,-1,-1],"split_conditions":[5.1E1,5.1E1,1E1,5.1E1,1.832032E6,1.832032E6,1.2E1,6.1805706E-2,-6.849902E-2,7.275788E-2,-5.7760727E-2,8.607679E-2,-5.4086834E-2,-4.58248E-2,-5.5979133E-2],"split_indices":[8,2,4,7,0,0,4,0,0,0,0,0,0,0,0],"split_type":[0,0,0,0,0,0,0,0,0,0,0,0,0,0,0],"sum_hessian":[2.2790308E3,1.3059353E3,9.730953E2,1.0475061E3,2.584292E2,3.543554E1,9.376598E2,1.0010332E3,4.647292E1,8.136225E1,1.7706694E2,1.14706135E1,2.3964926E1,3.36257E1,9.0403406E2],"tree_param":{"num_deleted":"0","num_feature":"9","num_nodes":"15","size_leaf_vector":"1"}},{"base_weights":[9.234875E-3,1.564602E-1,-4.627684E-1,-1.0217352E-1,5.33367E-1,-2.3041762E-1,-5.5711057E-2,3.9526477E-2,-4.1431036E-2,6.112169E-2,-5.4808553E-2,7.412888E-2,-4.3186583E-2],"categories":[],"categories_nodes":[],"categories_segments":[],"categories_sizes":[],"default_left":[0,0,0,0,0,0,0,0,0,0,0,0,0],"id":40,"left_children":[1,3,5,7,9,11,-1,-1,-1,-1,-1,-1,-1],"loss_changes":[1.6358952E2,1.7497057E2,1.2140755E1,1.655228E2,6.182634E1,3.229332E1,0E0,0E0,0E0,0E0,0E0,0E0,0E0],"parents":[2147483647,0,0,1,1,2,2,3,3,4,4,5,5],"right_children":[2,4,6,8,10,12,-1,-1,-1,-1,-1,-1,-1],"split_conditions":[9.4E1,5.1E1,1.01E2,1.3133554E6,8.3E1,3.8E1,-5.5711057E-2,3.9526477E-2,-4.1431036E-2,6.112169E-2,-5.4808553E-2,7.412888E-2,-4.3186583E-2],"split_indices":[8,8,8,1,7,4,0,0,0,0,0,0,0],"split_type":[0,0,0,0,0,0,0,0,0,0,0,0,0],"sum_hessian":[2.3520747E3,1.7933644E3,5.587103E2,1.0639855E3,7.293788E2,1.6233807E2,3.9637225E2,4.101237E2,6.538618E2,6.808049E2,4.8573917E1,2.7415712E1,1.3492236E2],"tree_param":{"num_deleted":"0","num_feature":"9","num_nodes":"13","size_leaf_vector":"1"}},{"base_weights":[-1.8594772E-2,-4.8357517E-1,5.926768E-1,-5.667306E-2,6.266816E-2,4.7493228E-1,6.3169874E-2,5.6379467E-2,-8.039979E-2],"categories":[],"categories_nodes":[],"categories_segments":[],"categories_sizes":[],"default_left":[0,0,0,0,0,0,0,0,0],"id":41,"left_children":[1,3,5,-1,-1,7,-1,-1,-1],"loss_changes":[6.167807E2,1.1414111E2,4.007599E0,0E0,0E0,2.743343E1,0E0,0E0,0E0],"parents":[2147483647,0,0,1,1,2,2,5,5],"right_children":[2,4,6,-1,-1,8,-1,-1,-1],"split_conditions":[9.4E1,8.3E1,1.01E2,-5.667306E-2,6.266816E-2,1.8E1,6.3169874E-2,5.6379467E-2,-8.039979E-2],"split_indices":[8,7,8,0,0,3,0,0,0],"split_type":[0,0,0,0,0,0,0,0,0],"sum_hessian":[2.1680024E3,1.2314645E3,9.365381E2,1.146113E3,8.535146E1,2.3639923E2,7.0013885E2,2.2156374E2,1.4835486E1],"tree_param":{"num_deleted":"0","num_feature":"9","num_nodes":"9","size_leaf_vector":"1"}},{"base_weights":[9.047721E-3,4.0117684E-1,-5.3188694E-1,5.422949E-1,-1.6703905E-1,-5.506268E-1,-5.5100247E-2,5.7965647E-2,-1.4124471E-1,6.943588E-2,-5.7206657E-2,-4.5420136E-2,-5.5392403E-2,8.771213E-2,-5.3226437E-2],"categories":[],"categories_nodes":[],"categories_segments":[],"categories_sizes":[],"default_left":[0,0,0,0,0,0,0,0,0,0,0,0,0,0,0],"id":42,"left_children":[1,3,5,7,9,11,13,-1,-1,-1,-1,-1,-1,-1,-1],"loss_changes":[4.5344598E2,9.946544E1,7.9968567E0,7.3339264E1,8.668419E1,2.319336E-2,1.6074448E1,0E0,0E0,0E0,0E0,0E0,0E0,0E0,0E0],"parents":[2147483647,0,0,1,1,2,2,3,3,4,4,5,5,6,6],"right_children":[2,4,6,8,10,12,14,-1,-1,-1,-1,-1,-1,-1,-1],"split_conditions":[5.1E1,5.1E1,6.7E1,5E1,1.832032E6,1.3E1,1.832032E6,5.7965647E-2,-1.4124471E-1,6.943588E-2,-5.7206657E-2,-4.5420136E-2,-5.5392403E-2,8.771213E-2,-5.3226437E-2],"split_indices":[8,2,2,4,0,2,0,0,0,0,0,0,0,0,0],"split_type":[0,0,0,0,0,0,0,0,0,0,0,0,0,0,0],"sum_hessian":[2.135718E3,1.2383116E3,8.974065E2,9.919929E2,2.4631868E2,8.633193E2,3.4087208E1,9.7407855E2,1.7914402E1,7.854905E1,1.6776962E2,3.3132385E1,8.301869E2,1.1256844E1,2.2830362E1],"tree_param":{"num_deleted":"0","num_feature":"9","num_nodes":"15","size_leaf_vector":"1"}},{"base_weights":[1.0172424E-2,1.5174548E-1,-4.5316848E-1,-1.0285834E-1,5.07739E-1,-2.1831425E-1,-5.5113442E-2,-3.893759E-2,4.202885E-2,5.7928454E-2,-5.413821E-2,-3.8091596E-2,9.757996E-2],"categories":[],"categories_nodes":[],"categories_segments":[],"categories_sizes":[],"default_left":[0,0,0,0,0,0,0,0,0,0,0,0,0],"id":43,"left_children":[1,3,5,7,9,11,-1,-1,-1,-1,-1,-1,-1],"loss_changes":[1.4532881E2,1.5385733E2,1.1809547E1,1.4858302E2,5.343692E1,3.0327776E1,0E0,0E0,0E0,0E0,0E0,0E0,0E0],"parents":[2147483647,0,0,1,1,2,2,3,3,4,4,5,5],"right_children":[2,4,6,8,10,12,-1,-1,-1,-1,-1,-1,-1],"split_conditions":[9.4E1,5E1,1.01E2,5.1E1,8.3E1,1.8E1,-5.5113442E-2,-3.893759E-2,4.202885E-2,5.7928454E-2,-5.413821E-2,-3.8091596E-2,9.757996E-2],"split_indices":[8,8,8,2,7,3,0,0,0,0,0,0,0],"split_type":[0,0,0,0,0,0,0,0,0,0,0,0,0],"sum_hessian":[2.213445E3,1.6959291E3,5.1751587E2,9.8918365E2,7.067454E2,1.5328159E2,3.6423428E2,6.393045E2,3.4987918E2,6.620447E2,4.4700756E1,1.3551024E2,1.7771338E1],"tree_param":{"num_deleted":"0","num_feature":"9","num_nodes":"13","size_leaf_vector":"1"}},{"base_weights":[-2.0740563E-2,-4.7905725E-1,5.76231E-1,-5.6126077E-2,6.114134E-2,4.559338E-1,6.1680067E-2,-6.419043E-2,5.5869628E-2],"categories":[],"categories_nodes":[],"categories_segments":[],"categories_sizes":[],"default_left":[0,0,0,0,0,0,0,0,0],"id":44,"left_children":[1,3,5,-1,-1,7,-1,-1,-1],"loss_changes":[5.524579E2,1.0273312E2,3.9987183E0,0E0,0E0,2.5742306E1,0E0,0E0,0E0],"parents":[2147483647,0,0,1,1,2,2,5,5],"right_children":[2,4,6,-1,-1,8,-1,-1,-1],"split_conditions":[9.4E1,8.3E1,1.01E2,-5.6126077E-2,6.114134E-2,3.8E1,6.1680067E-2,-6.419043E-2,5.5869628E-2],"split_indices":[8,7,8,0,0,4,0,0,0],"split_type":[0,0,0,0,0,0,0,0,0],"sum_hessian":[2.0171935E3,1.1412285E3,8.7596497E2,1.0616805E3,7.954793E1,2.2399954E2,6.519654E2,1.8723635E1,2.0527591E2],"tree_param":{"num_deleted":"0","num_feature":"9","num_nodes":"9","size_leaf_vector":"1"}},{"base_weights":[9.948166E-3,3.866937E-1,-5.250056E-1,4.612821E-1,-6.44074E-2,-5.4498035E-1,-3.1926017E-2,5.8667224E-2,-8.967466E-3,-4.4153485E-2,-5.485613E-2,8.5801676E-2,-5.2529275E-2],"categories":[],"categories_nodes":[],"categories_segments":[],"categories_sizes":[],"default_left":[0,0,0,0,0,0,0,0,0,0,0,0,0],"id":45,"left_children":[1,3,5,7,-1,9,11,-1,-1,-1,-1,-1,-1],"loss_changes":[4.0380988E2,9.0683655E1,8.137375E0,7.583038E1,0E0,5.2520752E-2,1.5070591E1,0E0,0E0,0E0,0E0,0E0,0E0],"parents":[2147483647,0,0,1,1,2,2,3,3,5,5,6,6],"right_children":[2,4,6,8,-1,10,12,-1,-1,-1,-1,-1,-1],"split_conditions":[5.1E1,5.1E1,6.7E1,5.1E1,-6.44074E-2,1.3E1,1.832032E6,5.8667224E-2,-8.967466E-3,-4.4153485E-2,-5.485613E-2,8.5801676E-2,-5.2529275E-2],"split_indices":[8,7,2,2,0,2,0,0,0,0,0,0,0],"split_type":[0,0,0,0,0,0,0,0,0,0,0,0,0],"sum_hessian":[2.0016E3,1.1746326E3,8.2696735E2,1.0958846E3,7.874795E1,7.9466986E2,3.229752E1,8.926623E2,2.032224E2,3.0747282E1,7.6392255E2,1.1255524E1,2.1041998E1],"tree_param":{"num_deleted":"0","num_feature":"9","num_nodes":"13","size_leaf_vector":"1"}},{"base_weights":[1.107259E-2,1.475207E-1,-4.4371086E-1,-8.906797E-2,5.060532E-1,-2.0662528E-1,-5.4576118E-2,3.7181262E-2,-3.8874965E-2,5.7877805E-2,-5.35203E-2,-3.6831353E-2,9.579644E-2],"categories":[],"categories_nodes":[],"categories_segments":[],"categories_sizes":[],"default_left":[0,0,0,0,0,0,0,0,0,0,0,0,0],"id":46,"left_children":[1,3,5,7,9,11,-1,-1,-1,-1,-1,-1,-1],"loss_changes":[1.2916217E2,1.3585019E2,1.1509682E1,1.3348074E2,4.8518356E1,2.7874762E1,0E0,0E0,0E0,0E0,0E0,0E0,0E0],"parents":[2147483647,0,0,1,1,2,2,3,3,4,4,5,5],"right_children":[2,4,6,8,10,12,-1,-1,-1,-1,-1,-1,-1],"split_conditions":[9.4E1,5.1E1,1.01E2,1.3133554E6,8.3E1,1.8E1,-5.4576118E-2,3.7181262E-2,-3.8874965E-2,5.7877805E-2,-5.35203E-2,-3.6831353E-2,9.579644E-2],"split_indices":[8,8,8,1,7,3,0,0,0,0,0,0,0],"split_type":[0,0,0,0,0,0,0,0,0,0,0,0,0],"sum_hessian":[2.0793813E3,1.6000085E3,4.7937296E2,9.643826E2,6.356259E2,1.4515964E2,3.3421332E2,3.7989743E2,5.8448517E2,5.9454504E2,4.1080853E1,1.2806343E2,1.7096214E1],"tree_param":{"num_deleted":"0","num_feature":"9","num_nodes":"13","size_leaf_vector":"1"}},{"base_weights":[-2.291127E-2,-4.7492978E-1,5.6155473E-1,-5.5614788E-2,5.9797604E-2,4.3864968E-1,6.0377616E-2,5.2877482E-2,-8.063466E-2],"categories":[],"categories_nodes":[],"categories_segments":[],"categories_sizes":[],"default_left":[0,0,0,0,0,0,0,0,0],"id":47,"left_children":[1,3,5,-1,-1,7,-1,-1,-1],"loss_changes":[4.9560757E2,9.250946E1,3.9806824E0,0E0,0E0,2.430896E1,0E0,0E0,0E0],"parents":[2147483647,0,0,1,1,2,2,5,5],"right_children":[2,4,6,-1,-1,8,-1,-1,-1],"split_conditions":[9.4E1,8.3E1,1.01E2,-5.5614788E-2,5.9797604E-2,1.8E1,6.0377616E-2,5.2877482E-2,-8.063466E-2],"split_indices":[8,7,8,0,0,3,0,0,0],"split_type":[0,0,0,0,0,0,0,0,0],"sum_hessian":[1.8739459E3,1.05681E3,8.171359E2,9.828879E2,7.392215E1,2.1184702E2,6.052889E2,1.980831E2,1.3763926E1],"tree_param":{"num_deleted":"0","num_feature":"9","num_nodes":"9","size_leaf_vector":"1"}},{"base_weights":[1.0830232E-2,3.7161127E-1,-5.1851827E-1,4.4510847E-1,-6.364813E-2,-4.364484E-3,-5.397066E-1,5.724285E-2,-9.048808E-3,8.137088E-2,-5.190459E-2,-4.1657206E-2,-5.4373425E-2],"categories":[],"categories_nodes":[],"categories_segments":[],"categories_sizes":[],"default_left":[0,0,0,0,0,0,0,0,0,0,0,0,0],"id":48,"left_children":[1,3,5,7,-1,9,11,-1,-1,-1,-1,-1,-1],"loss_changes":[3.5909335E2,8.312991E1,8.30011E0,7.1160324E1,0E0,1.3547118E1,1.3652039E-1,0E0,0E0,0E0,0E0,0E0,0E0],"parents":[2147483647,0,0,1,1,2,2,3,3,5,5,6,6],"right_children":[2,4,6,8,-1,10,12,-1,-1,-1,-1,-1,-1],"split_conditions":[5.1E1,5.1E1,1E1,5.1E1,-6.364813E-2,1.832032E6,1.2E1,5.724285E-2,-9.048808E-3,8.137088E-2,-5.190459E-2,-4.1657206E-2,-5.4373425E-2],"split_indices":[8,7,4,2,0,0,4,0,0,0,0,0,0],"split_type":[0,0,0,0,0,0,0,0,0,0,0,0,0],"sum_hessian":[1.8782688E3,1.1171593E3,7.611095E2,1.0417656E3,7.539374E1,3.0171726E1,7.309378E2,8.41628E2,2.0013756E2,1.1427308E1,1.8744417E1,2.6458874E1,7.044789E2],"tree_param":{"num_deleted":"0","num_feature":"9","num_nodes":"13","size_leaf_vector":"1"}},{"base_weights":[1.2074996E-2,1.430466E-1,-4.3359518E-1,-8.2020804E-2,4.9420992E-1,-1.9333008E-1,-5.409205E-2,3.5401944E-2,-3.7328105E-2,5.648106E-2,-5.2947264E-2,7.266973E-2,-4.02372E-2],"categories":[],"categories_nodes":[],"categories_segments":[],"categories_sizes":[],"default_left":[0,0,0,0,0,0,0,0,0,0,0,0,0],"id":49,"left_children":[1,3,5,7,9,11,-1,-1,-1,-1,-1,-1,-1],"loss_changes":[1.1444199E2,1.197984E2,1.1378685E1,1.1751534E2,4.3082626E1,2.7036531E1,0E0,0E0,0E0,0E0,0E0,0E0,0E0],"parents":[2147483647,0,0,1,1,2,2,3,3,4,4,5,5],"right_children":[2,4,6,8,10,12,-1,-1,-1,-1,-1,-1,-1],"split_conditions":[9.4E1,5.1E1,1.01E2,1.3133554E6,8.3E1,3.8E1,-5.409205E-2,3.5401944E-2,-3.7328105E-2,5.648106E-2,-5.2947264E-2,7.266973E-2,-4.02372E-2],"split_indices":[8,8,8,1,7,4,0,0,0,0,0,0,0],"split_type":[0,0,0,0,0,0,0,0,0,0,0,0,0],"sum_hessian":[1.9585631E3,1.514243E3,4.443201E2,9.232686E2,5.909744E2,1.380575E2,3.0626263E2,3.696528E2,5.536158E2,5.5326544E2,3.7708996E1,2.5102222E1,1.1295527E2],"tree_param":{"num_deleted":"0","num_feature":"9","num_nodes":"13","size_leaf_vector":"1"}},{"base_weights":[-2.529372E-2,-4.7148338E-1,5.4769015E-1,-5.5172693E-2,5.860856E-2,4.2073584E-1,5.9234638E-2,-6.4913355E-2,5.304643E-2],"categories":[],"categories_nodes":[],"categories_segments":[],"categories_sizes":[],"default_left":[0,0,0,0,0,0,0,0,0],"id":50,"left_children":[1,3,5,-1,-1,7,-1,-1,-1],"loss_changes":[4.451424E2,8.339194E1,4.0724487E0,0E0,0E0,2.403624E1,0E0,0E0,0E0],"parents":[2147483647,0,0,1,1,2,2,5,5],"right_children":[2,4,6,-1,-1,8,-1,-1,-1],"split_conditions":[9.4E1,8.3E1,1.01E2,-5.5172693E-2,5.860856E-2,3.8E1,5.9234638E-2,-6.4913355E-2,5.304643E-2],"split_indices":[8,7,8,0,0,4,0,0,0],"split_type":[0,0,0,0,0,0,0,0,0],"sum_hessian":[1.7391433E3,9.778537E2,7.612897E2,9.093357E2,6.8517975E1,2.0081328E2,5.604764E2,1.8222757E1,1.8259052E2],"tree_param":{"num_deleted":"0","num_feature":"9","num_nodes":"9","size_leaf_vector":"1"}},{"base_weights":[1.1865224E-2,3.573246E-1,-5.123278E-1,4.298E-1,-6.294296E-2,-5.3518635E-1,1.6736925E-2,4.6547804E-2,-1.479036E-1,-4.1485257E-2,-5.3943086E-2,8.2899146E-2,-5.1225215E-2],"categories":[],"categories_nodes":[],"categories_segments":[],"categories_sizes":[],"default_left":[0,0,0,0,0,0,0,0,0,0,0,0,0],"id":51,"left_children":[1,3,5,7,-1,9,11,-1,-1,-1,-1,-1,-1],"loss_changes":[3.1936398E2,7.62917E1,8.481461E0,6.8169815E1,0E0,1.1924744E-1,1.33083315E1,0E0,0E0,0E0,0E0,0E0,0E0],"parents":[2147483647,0,0,1,1,2,2,3,3,5,5,6,6],"right_children":[2,4,6,8,-1,10,12,-1,-1,-1,-1,-1,-1],"split_conditions":[5.1E1,5.1E1,6.7E1,5E1,-6.294296E-2,1.3E1,1.832032E6,4.6547804E-2,-1.479036E-1,-4.1485257E-2,-5.3943086E-2,8.2899146E-2,-5.1225215E-2],"split_indices":[8,7,2,4,0,2,0,0,0,0,0,0,0],"split_type":[0,0,0,0,0,0,0,0,0,0,0,0,0],"sum_hessian":[1.7615795E3,1.0620043E3,6.9957526E2,9.898648E2,7.213944E1,6.7059045E2,2.8984793E1,9.72445E2,1.7419813E1,2.6211824E1,6.443786E2,1.1207984E1,1.7776808E1],"tree_param":{"num_deleted":"0","num_feature":"9","num_nodes":"13","size_leaf_vector":"1"}},{"base_weights":[1.3014167E-2,1.387873E-1,-4.2559138E-1,-1.0503772E-1,4.4293338E-1,-1.8365434E-1,-5.3655066E-2,-2.411489E-2,8.38775E-2,4.9921297E-2,-5.241234E-2,-3.4646094E-2,9.3759544E-2],"categories":[],"categories_nodes":[],"categories_segments":[],"categories_sizes":[],"default_left":[0,0,0,0,0,0,0,0,0,0,0,0,0],"id":52,"left_children":[1,3,5,7,9,11,-1,-1,-1,-1,-1,-1,-1],"loss_changes":[1.0176043E2,1.06352394E2,1.093737E1,1.0251788E2,3.498735E1,2.4198086E1,0E0,0E0,0E0,0E0,0E0,0E0,0E0],"parents":[2147483647,0,0,1,1,2,2,3,3,4,4,5,5],"right_children":[2,4,6,8,10,12,-1,-1,-1,-1,-1,-1,-1],"split_conditions":[9.4E1,4.6E1,1.01E2,5.1E1,8.3E1,1.8E1,-5.3655066E-2,-2.411489E-2,8.38775E-2,4.9921297E-2,-5.241234E-2,-3.4646094E-2,9.3759544E-2],"split_indices":[8,8,8,7,7,3,0,0,0,0,0,0,0],"split_type":[0,0,0,0,0,0,0,0,0,0,0,0,0],"sum_hessian":[1.8425918E3,1.4324971E3,4.1009476E2,7.95457E2,6.3704004E2,1.2977873E2,2.80316E2,6.9585004E2,9.960695E1,6.024624E2,3.4577595E1,1.1392736E2,1.5851363E1],"tree_param":{"num_deleted":"0","num_feature":"9","num_nodes":"13","size_leaf_vector":"1"}},{"base_weights":[-2.7859805E-2,-4.6852562E-1,5.3593963E-1,-5.477888E-2,5.755071E-2,4.0645945E-1,5.822816E-2,4.9883746E-2,-8.0819085E-2],"categories":[],"categories_nodes":[],"categories_segments":[],"categories_sizes":[],"default_left":[0,0,0,0,0,0,0,0,0],"id":53,"left_children":[1,3,5,-1,-1,7,-1,-1,-1],"loss_changes":[4.007139E2,7.522868E1,4.0091705E0,0E0,0E0,2.1701872E1,0E0,0E0,0E0],"parents":[2147483647,0,0,1,1,2,2,5,5],"right_children":[2,4,6,-1,-1,8,-1,-1,-1],"split_conditions":[9.4E1,8.3E1,1.01E2,-5.477888E-2,5.755071E-2,1.8E1,5.822816E-2,4.9883746E-2,-8.0819085E-2],"split_indices":[8,7,8,0,0,3,0,0,0],"split_type":[0,0,0,0,0,0,0,0,0],"sum_hessian":[1.6108632E3,9.042613E2,7.0660187E2,8.408956E2,6.336568E1,1.8881639E2,5.177855E2,1.760189E2,1.2797477E1],"tree_param":{"num_deleted":"0","num_feature":"9","num_nodes":"9","size_leaf_vector":"1"}},{"base_weights":[1.2861658E-2,3.4085995E-1,-5.066038E-1,4.854649E-1,-1.6882169E-1,-5.3098524E-1,3.832985E-2,5.2988082E-2,-1.379281E-1,6.48347E-2,-5.6489643E-2,-4.0196847E-2,-5.3560823E-2,8.11932E-2,-5.0637554E-2],"categories":[],"categories_nodes":[],"categories_segments":[],"categories_sizes":[],"default_left":[0,0,0,0,0,0,0,0,0,0,0,0,0,0,0],"id":54,"left_children":[1,3,5,7,9,11,13,-1,-1,-1,-1,-1,-1,-1,-1],"loss_changes":[2.8389813E2,7.535544E1,8.588669E0,6.664676E1,7.366373E1,1.5290833E-1,1.2442152E1,0E0,0E0,0E0,0E0,0E0,0E0,0E0,0E0],"parents":[2147483647,0,0,1,1,2,2,3,3,4,4,5,5,6,6],"right_children":[2,4,6,8,10,12,14,-1,-1,-1,-1,-1,-1,-1,-1],"split_conditions":[5.1E1,5.1E1,6.7E1,5E1,1.832032E6,1.3E1,1.832032E6,5.2988082E-2,-1.379281E-1,6.48347E-2,-5.6489643E-2,-4.0196847E-2,-5.3560823E-2,8.11932E-2,-5.0637554E-2],"split_indices":[8,2,2,4,0,2,0,0,0,0,0,0,0,0,0],"split_type":[0,0,0,0,0,0,0,0,0,0,0,0,0,0,0],"sum_hessian":[1.6642141E3,1.02031537E3,6.438987E2,7.948508E2,2.2546455E2,6.163476E2,2.755109E1,7.770581E2,1.7792727E1,7.3397095E1,1.5206746E2,2.4363739E1,5.919838E2,1.1181004E1,1.6370087E1],"tree_param":{"num_deleted":"0","num_feature":"9","num_nodes":"15","size_leaf_vector":"1"}},{"base_weights":[1.4768134E-2,1.0922284E-1,-5.3259738E-2,-2.1585827E-1,2.606563E-1,-3.7224833E-2,6.291352E-2,-2.3398107E-2,3.6053002E-2],"categories":[],"categories_nodes":[],"categories_segments":[],"categories_sizes":[],"default_left":[0,0,0,0,0,0,0,0,0],"id":55,"left_children":[1,3,-1,5,7,-1,-1,-1,-1],"loss_changes":[9.038889E1,7.3449135E1,0E0,6.2917164E1,5.0351868E1,0E0,0E0,0E0,0E0],"parents":[2147483647,0,0,1,1,3,3,4,4],"right_children":[2,4,-1,6,8,-1,-1,-1,-1],"split_conditions":[1.01E2,1.4E1,-5.3259738E-2,5E1,1.832032E6,-3.7224833E-2,6.291352E-2,-2.3398107E-2,3.6053002E-2],"split_indices":[8,5,0,4,0,0,0,0,0],"split_type":[0,0,0,0,0,0,0,0,0],"sum_hessian":[1.7461671E3,1.4898717E3,2.5629538E2,4.7333704E2,1.01653467E3,3.998862E2,7.345085E1,1.7054518E2,8.459895E2],"tree_param":{"num_deleted":"0","num_feature":"9","num_nodes":"9","size_leaf_vector":"1"}},{"base_weights":[-3.1558327E-2,-4.6610272E-1,5.241142E-1,-5.4404974E-2,5.6604475E-2,3.9007047E-1,5.7338476E-2,-6.460241E-2,5.034482E-2],"categories":[],"categories_nodes":[],"categories_segments":[],"categories_sizes":[],"default_left":[0,0,0,0,0,0,0,0,0],"id":56,"left_children":[1,3,5,-1,-1,7,-1,-1,-1],"loss_changes":[3.615404E2,6.79028E1,4.116028E0,0E0,0E0,2.1439123E1,0E0,0E0,0E0],"parents":[2147483647,0,0,1,1,2,2,5,5],"right_children":[2,4,6,-1,-1,8,-1,-1,-1],"split_conditions":[9.4E1,8.3E1,1.01E2,-5.4404974E-2,5.6604475E-2,3.8E1,5.7338476E-2,-6.460241E-2,5.034482E-2],"split_indices":[8,7,8,0,0,4,0,0,0],"split_type":[0,0,0,0,0,0,0,0,0],"sum_hessian":[1.4952708E3,8.3918024E2,6.560906E2,7.806956E2,5.848465E1,1.7873842E2,4.7735214E2,1.7166405E1,1.61572E2],"tree_param":{"num_deleted":"0","num_feature":"9","num_nodes":"9","size_leaf_vector":"1"}},{"base_weights":[1.3370934E-2,3.3078462E-1,-5.022438E-1,4.7214323E-1,-1.6760533E-1,-5.2742887E-1,4.3993615E-2,5.4240417E-2,-6.637493E-2,6.271299E-2,-5.5999525E-2,-3.9514106E-2,-5.323682E-2,7.701629E-2,-5.0112404E-2],"categories":[],"categories_nodes":[],"categories_segments":[],"categories_sizes":[],"default_left":[0,0,0,0,0,0,0,0,0,0,0,0,0,0,0],"id":57,"left_children":[1,3,5,7,9,11,13,-1,-1,-1,-1,-1,-1,-1,-1],"loss_changes":[2.5635245E2,6.838092E1,8.233978E0,6.0657944E1,6.738401E1,1.6247559E-1,1.1164249E1,0E0,0E0,0E0,0E0,0E0,0E0,0E0,0E0],"parents":[2147483647,0,0,1,1,2,2,3,3,4,4,5,5,6,6],"right_children":[2,4,6,8,10,12,14,-1,-1,-1,-1,-1,-1,-1,-1],"split_conditions":[5.1E1,5.1E1,6.7E1,5.1E1,1.832032E6,1.3E1,1.832032E6,5.4240417E-2,-6.637493E-2,6.271299E-2,-5.5999525E-2,-3.9514106E-2,-5.323682E-2,7.701629E-2,-5.0112404E-2],"split_indices":[8,2,2,7,0,2,0,0,0,0,0,0,0,0,0],"split_type":[0,0,0,0,0,0,0,0,0,0,0,0,0,0,0],"sum_hessian":[1.5643264E3,9.684839E2,5.958425E2,7.5452905E2,2.1395485E2,5.696141E2,2.6228409E1,7.1106824E2,4.3460823E1,7.052246E1,1.4343239E2,2.3417902E1,5.461962E2,1.10695095E1,1.5158899E1],"tree_param":{"num_deleted":"0","num_feature":"9","num_nodes":"15","size_leaf_vector":"1"}},{"base_weights":[1.5393601E-2,1.320625E-1,-4.0953076E-1,-6.562852E-2,4.6884772E-1,-1.7803693E-1,-5.2901216E-2,-3.2410316E-2,3.7918996E-2,5.3393316E-2,-5.150075E-2,7.002034E-2,-3.805458E-2],"categories":[],"categories_nodes":[],"categories_segments":[],"categories_sizes":[],"default_left":[0,0,0,0,0,0,0,0,0,0,0,0,0],"id":58,"left_children":[1,3,5,7,9,11,-1,-1,-1,-1,-1,-1,-1],"loss_changes":[8.220855E1,8.66462E1,9.786396E0,9.447361E1,3.1095482E1,2.216291E1,0E0,0E0,0E0,0E0,0E0,0E0,0E0],"parents":[2147483647,0,0,1,1,2,2,3,3,4,4,5,5],"right_children":[2,4,6,8,10,12,-1,-1,-1,-1,-1,-1,-1],"split_conditions":[9.4E1,5.1E1,1.01E2,5.1E1,8.3E1,3.8E1,-5.2901216E-2,-3.2410316E-2,3.7918996E-2,5.3393316E-2,-5.150075E-2,7.002034E-2,-3.805458E-2],"split_indices":[8,8,8,2,7,4,0,0,0,0,0,0,0],"split_type":[0,0,0,0,0,0,0,0,0,0,0,0,0],"sum_hessian":[1.65616E3,1.2999342E3,3.562258E2,8.196245E2,4.8030978E2,1.2211651E2,2.3410931E2,5.185674E2,3.0105713E2,4.509361E2,2.937368E1,2.2421467E1,9.969504E1],"tree_param":{"num_deleted":"0","num_feature":"9","num_nodes":"13","size_leaf_vector":"1"}},{"base_weights":[-3.3350635E-2,-4.635972E-1,5.1499146E-1,-5.405658E-2,5.580885E-2,3.837891E-1,5.6549817E-2,-6.382432E-2,4.946709E-2],"categories":[],"categories_nodes":[],"categories_segments":[],"categories_sizes":[],"default_left":[0,0,0,0,0,0,0,0,0],"id":59,"left_children":[1,3,5,-1,-1,7,-1,-1,-1],"loss_changes":[3.287501E2,6.1699936E1,3.8429565E0,0E0,0E0,1.9967281E1,0E0,0E0,0E0],"parents":[2147483647,0,0,1,1,2,2,5,5],"right_children":[2,4,6,-1,-1,8,-1,-1,-1],"split_conditions":[9.4E1,8.3E1,1.01E2,-5.405658E-2,5.580885E-2,3.8E1,5.6549817E-2,-6.382432E-2,4.946709E-2],"split_indices":[8,7,8,0,0,4,0,0,0],"split_type":[0,0,0,0,0,0,0,0,0],"sum_hessian":[1.3914556E3,7.7977435E2,6.1168115E2,7.2558356E2,5.419082E1,1.7240921E2,4.3927194E2,1.6408731E1,1.5600047E2],"tree_param":{"num_deleted":"0","num_feature":"9","num_nodes":"9","size_leaf_vector":"1"}},{"base_weights":[1.4381973E-2,3.2086122E-1,-4.9670327E-1,3.9289206E-1,-6.204484E-2,-5.2372366E-1,6.703579E-2,5.301347E-2,-1.0905714E-2,-3.813302E-2,-5.2913755E-2,7.586996E-2,-4.9538307E-2],"categories":[],"categories_nodes":[],"categories_segments":[],"categories_sizes":[],"default_left":[0,0,0,0,0,0,0,0,0,0,0,0,0],"id":60,"left_children":[1,3,5,7,-1,9,11,-1,-1,-1,-1,-1,-1],"loss_changes":[2.288307E2,6.2163452E1,8.377243E0,5.8539078E1,0E0,2.012024E-1,1.046486E1,0E0,0E0,0E0,0E0,0E0,0E0],"parents":[2147483647,0,0,1,1,2,2,3,3,5,5,6,6],"right_children":[2,4,6,8,-1,10,12,-1,-1,-1,-1,-1,-1],"split_conditions":[5.1E1,5.1E1,6.7E1,5.1E1,-6.204484E-2,1.3E1,1.832032E6,5.301347E-2,-1.0905714E-2,-3.813302E-2,-5.2913755E-2,7.586996E-2,-4.9538307E-2],"split_indices":[8,7,2,2,0,2,0,0,0,0,0,0,0],"split_type":[0,0,0,0,0,0,0,0,0,0,0,0,0],"sum_hessian":[1.4588805E3,9.122247E2,5.4665576E2,8.4792255E2,6.430208E1,5.2172034E2,2.4935448E1,6.658187E2,1.8210382E2,2.1726143E1,4.999942E2,1.1026295E1,1.3909153E1],"tree_param":{"num_deleted":"0","num_feature":"9","num_nodes":"13","size_leaf_vector":"1"}},{"base_weights":[1.6287081E-2,1.032706E-1,-5.2575197E-2,4.0032655E-1,-5.073218E-2,-5.021376E-3,5.9663232E-2,-2.942942E-2,4.5493558E-2],"categories":[],"categories_nodes":[],"categories_segments":[],"categories_sizes":[],"default_left":[0,0,0,0,0,0,0,0,0],"id":61,"left_children":[1,3,-1,5,7,-1,-1,-1,-1],"loss_changes":[7.3187996E1,6.120639E1,0E0,4.0427513E1,1.0872725E2,0E0,0E0,0E0,0E0],"parents":[2147483647,0,0,1,1,3,3,4,4],"right_children":[2,4,-1,6,8,-1,-1,-1,-1],"split_conditions":[1.01E2,1.3133554E6,-5.2575197E-2,5.1E1,1.8E1,-5.021376E-3,5.9663232E-2,-2.942942E-2,4.5493558E-2],"split_indices":[8,1,0,2,3,0,0,0,0],"split_type":[0,0,0,0,0,0,0,0,0],"sum_hessian":[1.5501366E3,1.3364756E3,2.1366096E2,4.5576022E2,8.807154E2,1.3854062E2,3.172196E2,5.946917E2,2.8602365E2],"tree_param":{"num_deleted":"0","num_feature":"9","num_nodes":"9","size_leaf_vector":"1"}},{"base_weights":[-3.5976917E-2,-4.6171498E-1,5.055507E-1,-5.3778708E-2,5.503379E-2,3.7094647E-1,5.5848546E-2,4.6984073E-2,-8.214288E-2],"categories":[],"categories_nodes":[],"categories_segments":[],"categories_sizes":[],"default_left":[0,0,0,0,0,0,0,0,0],"id":62,"left_children":[1,3,5,-1,-1,7,-1,-1,-1],"loss_changes":[2.9667624E2,5.5758118E1,3.82872E0,0E0,0E0,1.9589827E1,0E0,0E0,0E0],"parents":[2147483647,0,0,1,1,2,2,5,5],"right_children":[2,4,6,-1,-1,8,-1,-1,-1],"split_conditions":[9.4E1,8.3E1,1.01E2,-5.3778708E-2,5.503379E-2,1.8E1,5.5848546E-2,4.6984073E-2,-8.214288E-2],"split_indices":[8,7,8,0,0,3,0,0,0],"split_type":[0,0,0,0,0,0,0,0,0],"sum_hessian":[1.2848131E3,7.193904E2,5.654228E2,6.695328E2,4.9857594E1,1.6185657E2,4.0356622E2,1.5002003E2,1.1836525E1],"tree_param":{"num_deleted":"0","num_feature":"9","num_nodes":"9","size_leaf_vector":"1"}},{"base_weights":[1.5211402E-2,3.1169733E-1,-4.9271464E-1,3.8341025E-1,-6.1669387E-2,-5.2059054E-1,7.4463695E-2,4.2510092E-2,-1.4058231E-1,-3.699672E-2,-5.264541E-2,7.211863E-2,-4.894979E-2],"categories":[],"categories_nodes":[],"categories_segments":[],"categories_sizes":[],"default_left":[0,0,0,0,0,0,0,0,0,0,0,0,0],"id":63,"left_children":[1,3,5,7,-1,9,11,-1,-1,-1,-1,-1,-1],"loss_changes":[2.0650795E2,5.788212E1,8.030052E0,6.059929E1,0E0,2.308197E-1,9.308007E0,0E0,0E0,0E0,0E0,0E0,0E0],"parents":[2147483647,0,0,1,1,2,2,3,3,5,5,6,6],"right_children":[2,4,6,8,-1,10,12,-1,-1,-1,-1,-1,-1],"split_conditions":[5.1E1,5.1E1,6.7E1,5E1,-6.1669387E-2,1.3E1,1.832032E6,4.2510092E-2,-1.4058231E-1,-3.699672E-2,-5.264541E-2,7.211863E-2,-4.894979E-2],"split_indices":[8,7,2,4,0,2,0,0,0,0,0,0,0],"split_type":[0,0,0,0,0,0,0,0,0,0,0,0,0],"sum_hessian":[1.3692793E3,8.648415E2,5.044378E2,8.0337256E2,6.146891E1,4.808852E2,2.3552597E1,7.858246E2,1.7547985E1,2.0420341E1,4.6046487E2,1.0841419E1,1.2711179E1],"tree_param":{"num_deleted":"0","num_feature":"9","num_nodes":"13","size_leaf_vector":"1"}},{"base_weights":[1.7201962E-2,1.00589596E-1,-5.2277822E-2,3.9048034E-1,-4.884E-2,-4.553022E-3,5.8839094E-2,-2.8137317E-2,4.3986894E-2],"categories":[],"categories_nodes":[],"categories_segments":[],"categories_sizes":[],"default_left":[0,0,0,0,0,0,0,0,0],"id":64,"left_children":[1,3,-1,5,7,-1,-1,-1,-1],"loss_changes":[6.592218E1,5.494751E1,0E0,3.725392E1,9.531032E1,0E0,0E0,0E0,0E0],"parents":[2147483647,0,0,1,1,3,3,4,4],"right_children":[2,4,-1,6,8,-1,-1,-1,-1],"split_conditions":[1.01E2,1.3133554E6,-5.2277822E-2,5.1E1,1.8E1,-4.553022E-3,5.8839094E-2,-2.8137317E-2,4.3986894E-2],"split_indices":[8,1,0,2,3,0,0,0,0],"split_type":[0,0,0,0,0,0,0,0,0],"sum_hessian":[1.4618694E3,1.2670206E3,1.9484874E2,4.3041333E2,8.3660724E2,1.346157E2,2.9579764E2,5.671671E2,2.694402E2],"tree_param":{"num_deleted":"0","num_feature":"9","num_nodes":"9","size_leaf_vector":"1"}},{"base_weights":[-3.867405E-2,-4.5949525E-1,4.9644852E-1,-5.3514566E-2,5.439907E-2,3.5869747E-1,5.522346E-2,4.5675226E-2,-8.003021E-2],"categories":[],"categories_nodes":[],"categories_segments":[],"categories_sizes":[],"default_left":[0,0,0,0,0,0,0,0,0],"id":65,"left_children":[1,3,5,-1,-1,7,-1,-1,-1],"loss_changes":[2.6812253E2,5.0884613E1,3.8300018E0,0E0,0E0,1.7860588E1,0E0,0E0,0E0],"parents":[2147483647,0,0,1,1,2,2,5,5],"right_children":[2,4,6,-1,-1,8,-1,-1,-1],"split_conditions":[9.4E1,8.3E1,1.01E2,-5.3514566E-2,5.439907E-2,1.8E1,5.522346E-2,4.5675226E-2,-8.003021E-2],"split_indices":[8,7,8,0,0,3,0,0,0],"split_type":[0,0,0,0,0,0,0,0,0],"sum_hessian":[1.1886326E3,6.654573E2,5.231753E2,6.192409E2,4.6216354E1,1.529441E2,3.7023117E2,1.4157257E2,1.137155E1],"tree_param":{"num_deleted":"0","num_feature":"9","num_nodes":"9","size_leaf_vector":"1"}},{"base_weights":[1.5875697E-2,3.0007654E-1,-4.8896036E-1,3.705938E-1,-6.1309468E-2,-5.1768744E-1,8.152617E-2,4.1281547E-2,-1.3336128E-1,-3.585021E-2,-5.2404065E-2,6.880908E-2,-4.836658E-2],"categories":[],"categories_nodes":[],"categories_segments":[],"categories_sizes":[],"default_left":[0,0,0,0,0,0,0,0,0,0,0,0,0],"id":66,"left_children":[1,3,5,7,-1,9,11,-1,-1,-1,-1,-1,-1],"loss_changes":[1.858123E2,5.358293E1,7.687149E0,5.594137E1,0E0,2.6142883E-1,8.295901E0,0E0,0E0,0E0,0E0,0E0,0E0],"parents":[2147483647,0,0,1,1,2,2,3,3,5,5,6,6],"right_children":[2,4,6,8,-1,10,12,-1,-1,-1,-1,-1,-1],"split_conditions":[5.1E1,5.1E1,6.7E1,5E1,-6.1309468E-2,1.3E1,1.832032E6,4.1281547E-2,-1.3336128E-1,-3.585021E-2,-5.2404065E-2,6.880908E-2,-4.836658E-2],"split_indices":[8,7,2,4,0,2,0,0,0,0,0,0,0],"split_type":[0,0,0,0,0,0,0,0,0,0,0,0,0],"sum_hessian":[1.2930637E3,8.275784E2,4.6548526E2,7.688038E2,5.8774662E1,4.4325742E2,2.2227844E1,7.509566E2,1.7847166E1,1.9215872E1,4.2404153E2,1.0616625E1,1.1611218E1],"tree_param":{"num_deleted":"0","num_feature":"9","num_nodes":"13","size_leaf_vector":"1"}},{"base_weights":[1.8794434E-2,9.845786E-2,-5.2005667E-2,3.8219997E-1,-4.7668796E-2,-4.3871896E-3,5.8265176E-2,-2.6979787E-2,4.249306E-2],"categories":[],"categories_nodes":[],"categories_segments":[],"categories_sizes":[],"default_left":[0,0,0,0,0,0,0,0,0],"id":67,"left_children":[1,3,-1,5,7,-1,-1,-1,-1],"loss_changes":[5.951355E1,5.008952E1,0E0,3.5095844E1,8.388806E1,0E0,0E0,0E0,0E0],"parents":[2147483647,0,0,1,1,3,3,4,4],"right_children":[2,4,-1,6,8,-1,-1,-1,-1],"split_conditions":[1.01E2,1.3133554E6,-5.2005667E-2,5.1E1,1.8E1,-4.3871896E-3,5.8265176E-2,-2.6979787E-2,4.249306E-2],"split_indices":[8,1,0,2,3,0,0,0,0],"split_type":[0,0,0,0,0,0,0,0,0],"sum_hessian":[1.3842057E3,1.2066348E3,1.775709E2,4.0962604E2,7.970088E2,1.3130685E2,2.7831918E2,5.4246906E2,2.5453975E2],"tree_param":{"num_deleted":"0","num_feature":"9","num_nodes":"9","size_leaf_vector":"1"}},{"base_weights":[-4.2266004E-2,-4.5782432E-1,4.8779318E-1,-5.328845E-2,5.381729E-2,3.4689176E-1,5.46647E-2,-6.3257955E-2,4.629683E-2],"categories":[],"categories_nodes":[],"categories_segments":[],"categories_sizes":[],"default_left":[0,0,0,0,0,0,0,0,0],"id":68,"left_children":[1,3,5,-1,-1,7,-1,-1,-1],"loss_changes":[2.4296796E2,4.6507034E1,3.8304443E0,0E0,0E0,1.684289E1,0E0,0E0,0E0],"parents":[2147483647,0,0,1,1,2,2,5,5],"right_children":[2,4,6,-1,-1,8,-1,-1,-1],"split_conditions":[9.4E1,8.3E1,1.01E2,-5.328845E-2,5.381729E-2,3.8E1,5.46647E-2,-6.3257955E-2,4.629683E-2],"split_indices":[8,7,8,0,0,4,0,0,0],"split_type":[0,0,0,0,0,0,0,0,0],"sum_hessian":[1.1010297E3,6.1725073E2,4.837789E2,5.744259E2,4.2824814E1,1.4456683E2,3.3921207E2,1.4845831E1,1.29721E2],"tree_param":{"num_deleted":"0","num_feature":"9","num_nodes":"9","size_leaf_vector":"1"}},{"base_weights":[1.663206E-2,2.8898585E-1,-4.8537296E-1,4.2929098E-1,-1.6395544E-1,-5.1495457E-1,8.826071E-2,4.8370946E-2,-1.2709431E-1,5.8456194E-2,-5.5141952E-2,-3.469401E-2,-5.2184083E-2,6.585697E-2,-4.778343E-2],"categories":[],"categories_nodes":[],"categories_segments":[],"categories_sizes":[],"default_left":[0,0,0,0,0,0,0,0,0,0,0,0,0,0,0],"id":69,"left_children":[1,3,5,7,9,11,13,-1,-1,-1,-1,-1,-1,-1,-1],"loss_changes":[1.6732881E2,5.0488846E1,7.34993E0,5.6685257E1,5.4950615E1,2.9273224E-1,7.4055443E0,0E0,0E0,0E0,0E0,0E0,0E0,0E0,0E0],"parents":[2147483647,0,0,1,1,2,2,3,3,4,4,5,5,6,6],"right_children":[2,4,6,8,10,12,14,-1,-1,-1,-1,-1,-1,-1,-1],"split_conditions":[5.1E1,5.1E1,6.7E1,5E1,1.832032E6,1.3E1,1.832032E6,4.8370946E-2,-1.2709431E-1,5.8456194E-2,-5.5141952E-2,-3.469401E-2,-5.2184083E-2,6.585697E-2,-4.778343E-2],"split_indices":[8,2,2,4,0,2,0,0,0,0,0,0,0,0,0],"split_type":[0,0,0,0,0,0,0,0,0,0,0,0,0,0,0],"sum_hessian":[1.2218271E3,7.92367E2,4.294601E2,6.05009E2,1.8735806E2,4.0849673E2,2.0963383E1,5.869386E2,1.8070333E1,6.3731155E1,1.236269E2,1.810652E1,3.9039023E2,1.0361449E1,1.0601934E1],"tree_param":{"num_deleted":"0","num_feature":"9","num_nodes":"15","size_leaf_vector":"1"}},{"base_weights":[2.030812E-2,9.637331E-2,-5.1755607E-2,3.735703E-1,-4.6022054E-2,-4.2609847E-3,5.768038E-2,-2.5879046E-2,4.1194122E-2],"categories":[],"categories_nodes":[],"categories_segments":[],"categories_sizes":[],"default_left":[0,0,0,0,0,0,0,0,0],"id":70,"left_children":[1,3,-1,5,7,-1,-1,-1,-1],"loss_changes":[5.3731884E1,4.542464E1,0E0,3.3054657E1,7.424615E1,0E0,0E0,0E0,0E0],"parents":[2147483647,0,0,1,1,3,3,4,4],"right_children":[2,4,-1,6,8,-1,-1,-1,-1],"split_conditions":[1.01E2,1.3133554E6,-5.1755607E-2,5.1E1,1.8E1,-4.2609847E-3,5.768038E-2,-2.5879046E-2,4.1194122E-2],"split_indices":[8,1,0,2,3,0,0,0,0],"split_type":[0,0,0,0,0,0,0,0,0],"sum_hessian":[1.3111097E3,1.1493838E3,1.6172597E2,3.8951077E2,7.59873E2,1.2806024E2,2.6145053E2,5.1912427E2,2.4074872E2],"tree_param":{"num_deleted":"0","num_feature":"9","num_nodes":"9","size_leaf_vector":"1"}},{"base_weights":[-4.6049498E-2,-4.564212E-1,4.8013505E-1,-5.308978E-2,5.328072E-2,3.3694038E-1,5.416394E-2,4.3901525E-2,-7.897547E-2],"categories":[],"categories_nodes":[],"categories_segments":[],"categories_sizes":[],"default_left":[0,0,0,0,0,0,0,0,0],"id":71,"left_children":[1,3,5,-1,-1,7,-1,-1,-1],"loss_changes":[2.2053557E2,4.2553658E1,3.7591782E0,0E0,0E0,1.61165E1,0E0,0E0,0E0],"parents":[2147483647,0,0,1,1,2,2,5,5],"right_children":[2,4,6,-1,-1,8,-1,-1,-1],"split_conditions":[9.4E1,8.3E1,1.01E2,-5.308978E-2,5.328072E-2,1.8E1,5.416394E-2,4.3901525E-2,-7.897547E-2],"split_indices":[8,7,8,0,0,3,0,0,0],"split_type":[0,0,0,0,0,0,0,0,0],"sum_hessian":[1.0193082E3,5.727515E2,4.4655673E2,5.330805E2,3.967103E1,1.3611992E2,3.104368E2,1.2537199E2,1.0747938E1],"tree_param":{"num_deleted":"0","num_feature":"9","num_nodes":"9","size_leaf_vector":"1"}},{"base_weights":[1.7473226E-2,2.8182006E-1,-4.819853E-1,3.556884E-1,-6.2034465E-2,-5.1241297E-1,9.467073E-2,3.9984096E-2,-1.2159007E-1,-3.352748E-2,-5.198769E-2,6.319839E-2,-4.7196325E-2],"categories":[],"categories_nodes":[],"categories_segments":[],"categories_sizes":[],"default_left":[0,0,0,0,0,0,0,0,0,0,0,0,0],"id":72,"left_children":[1,3,5,7,-1,9,11,-1,-1,-1,-1,-1,-1],"loss_changes":[1.5159532E2,5.025277E1,7.021263E0,4.8683014E1,0E0,3.2497406E-1,6.6193795E0,0E0,0E0,0E0,0E0,0E0,0E0],"parents":[2147483647,0,0,1,1,2,2,3,3,5,5,6,6],"right_children":[2,4,6,8,-1,10,12,-1,-1,-1,-1,-1,-1],"split_conditions":[5.1E1,5.1E1,6.7E1,5E1,-6.2034465E-2,1.3E1,1.832032E6,3.9984096E-2,-1.2159007E-1,-3.352748E-2,-5.198769E-2,6.319839E-2,-4.7196325E-2],"split_indices":[8,7,2,4,0,2,0,0,0,0,0,0,0],"split_type":[0,0,0,0,0,0,0,0,0,0,0,0,0],"sum_hessian":[1.1461572E3,7.497665E2,3.963908E2,6.935824E2,5.618408E1,3.766291E2,1.9761707E1,6.7535443E2,1.8227972E1,1.708463E1,3.5954446E2,1.0084092E1,9.677615E0],"tree_param":{"num_deleted":"0","num_feature":"9","num_nodes":"13","size_leaf_vector":"1"}},{"base_weights":[2.1170083E-2,9.4176956E-2,-5.1524844E-2,3.6552534E-1,-4.3794464E-2,-2.9011571E-3,5.695119E-2,-3.0246222E-2,3.0770881E-2],"categories":[],"categories_nodes":[],"categories_segments":[],"categories_sizes":[],"default_left":[0,0,0,0,0,0,0,0,0],"id":73,"left_children":[1,3,-1,5,7,-1,-1,-1,-1],"loss_changes":[4.8450336E1,4.0775715E1,0E0,2.9559673E1,6.579648E1,0E0,0E0,0E0,0E0],"parents":[2147483647,0,0,1,1,3,3,4,4],"right_children":[2,4,-1,6,8,-1,-1,-1,-1],"split_conditions":[1.01E2,1.3133554E6,-5.1524844E-2,5.1E1,1.7E1,-2.9011571E-3,5.695119E-2,-3.0246222E-2,3.0770881E-2],"split_indices":[8,1,0,2,3,0,0,0,0],"split_type":[0,0,0,0,0,0,0,0,0],"sum_hessian":[1.2349307E3,1.0877163E3,1.4721437E2,3.6608588E2,7.216304E2,1.2506036E2,2.4102551E2,4.157924E2,3.0583798E2],"tree_param":{"num_deleted":"0","num_feature":"9","num_nodes":"9","size_leaf_vector":"1"}},{"base_weights":[-4.897033E-2,-4.5468178E-1,4.7218674E-1,-5.287773E-2,5.2782845E-2,3.2593602E-1,5.371396E-2,-6.2709115E-2,4.446776E-2],"categories":[],"categories_nodes":[],"categories_segments":[],"categories_sizes":[],"default_left":[0,0,0,0,0,0,0,0,0],"id":74,"left_children":[1,3,5,-1,-1,7,-1,-1,-1],"loss_changes":[1.9973322E2,3.894194E1,3.7532501E0,0E0,0E0,1.4958512E1,0E0,0E0,0E0],"parents":[2147483647,0,0,1,1,2,2,5,5],"right_children":[2,4,6,-1,-1,8,-1,-1,-1],"split_conditions":[9.4E1,8.3E1,1.01E2,-5.287773E-2,5.2782845E-2,3.8E1,5.371396E-2,-6.2709115E-2,4.446776E-2],"split_indices":[8,7,8,0,0,4,0,0,0],"split_type":[0,0,0,0,0,0,0,0,0],"sum_hessian":[9.4262036E2,5.300857E2,4.1253467E2,4.9334235E2,3.6743347E1,1.2872034E2,2.8381433E2,1.378665E1,1.14933685E2],"tree_param":{"num_deleted":"0","num_feature":"9","num_nodes":"9","size_leaf_vector":"1"}},{"base_weights":[1.7866172E-2,2.7135378E-1,-4.788227E-1,3.4415084E-1,-6.167812E-2,-5.099956E-1,9.955192E-2,4.9446013E-2,-1.3977927E-2,-3.2440368E-2,-5.1807355E-2,6.0648955E-2,-4.6602055E-2],"categories":[],"categories_nodes":[],"categories_segments":[],"categories_sizes":[],"default_left":[0,0,0,0,0,0,0,0,0,0,0,0,0],"id":75,"left_children":[1,3,5,7,-1,9,11,-1,-1,-1,-1,-1,-1],"loss_changes":[1.3675415E2,4.67051E1,6.668274E0,4.846039E1,0E0,3.5430145E-1,5.9042287E0,0E0,0E0,0E0,0E0,0E0,0E0],"parents":[2147483647,0,0,1,1,2,2,3,3,5,5,6,6],"right_children":[2,4,6,8,-1,10,12,-1,-1,-1,-1,-1,-1],"split_conditions":[5.1E1,5.1E1,6.7E1,5.1E1,-6.167812E-2,1.3E1,1.832032E6,4.9446013E-2,-1.3977927E-2,-3.2440368E-2,-5.1807355E-2,6.0648955E-2,-4.6602055E-2],"split_indices":[8,7,2,2,0,2,0,0,0,0,0,0,0],"split_type":[0,0,0,0,0,0,0,0,0,0,0,0,0],"sum_hessian":[1.084142E3,7.1810645E2,3.660355E2,6.642712E2,5.3835293E1,3.4742825E2,1.8607243E1,5.0682803E2,1.5744313E2,1.6207964E1,3.3122028E2,9.774106E0,8.833137E0],"tree_param":{"num_deleted":"0","num_feature":"9","num_nodes":"13","size_leaf_vector":"1"}},{"base_weights":[2.2526668E-2,9.20259E-2,-5.131082E-2,3.5734403E-1,-4.2116992E-2,-2.8858406E-3,5.6476563E-2,-2.9145598E-2,2.9444328E-2],"categories":[],"categories_nodes":[],"categories_segments":[],"categories_sizes":[],"default_left":[0,0,0,0,0,0,0,0,0],"id":76,"left_children":[1,3,-1,5,7,-1,-1,-1,-1],"loss_changes":[4.3736122E1,3.7017334E1,0E0,2.7992405E1,5.810902E1,0E0,0E0,0E0,0E0],"parents":[2147483647,0,0,1,1,3,3,4,4],"right_children":[2,4,-1,6,8,-1,-1,-1,-1],"split_conditions":[1.01E2,1.3133554E6,-5.131082E-2,5.1E1,1.7E1,-2.8858406E-3,5.6476563E-2,-2.9145598E-2,2.9444328E-2],"split_indices":[8,1,0,2,3,0,0,0,0],"split_type":[0,0,0,0,0,0,0,0,0],"sum_hessian":[1.1726061E3,1.0386661E3,1.3393991E2,3.482354E2,6.904307E2,1.2197977E2,2.2625566E2,3.9668362E2,2.9374707E2],"tree_param":{"num_deleted":"0","num_feature":"9","num_nodes":"9","size_leaf_vector":"1"}},{"base_weights":[-5.2367028E-2,-4.5392606E-1,4.654289E-1,-5.272482E-2,5.230335E-2,3.1905618E-1,5.3308524E-2,4.2507045E-2,-7.7980965E-2],"categories":[],"categories_nodes":[],"categories_segments":[],"categories_sizes":[],"default_left":[0,0,0,0,0,0,0,0,0],"id":77,"left_children":[1,3,5,-1,-1,7,-1,-1,-1],"loss_changes":[1.8216074E2,3.561653E1,3.6199112E0,0E0,0E0,1.4714982E1,0E0,0E0,0E0],"parents":[2147483647,0,0,1,1,2,2,5,5],"right_children":[2,4,6,-1,-1,8,-1,-1,-1],"split_conditions":[9.4E1,8.3E1,1.01E2,-5.272482E-2,5.230335E-2,1.8E1,5.3308524E-2,4.2507045E-2,-7.7980965E-2],"split_indices":[8,7,8,0,0,3,0,0,0],"split_type":[0,0,0,0,0,0,0,0,0],"sum_hessian":[8.7406995E2,4.9236014E2,3.8170984E2,4.584157E2,3.3944416E1,1.2246842E2,2.592414E2,1.1225197E2,1.02164545E1],"tree_param":{"num_deleted":"0","num_feature":"9","num_nodes":"9","size_leaf_vector":"1"}},{"base_weights":[1.8426007E-2,2.6390657E-1,-4.7581655E-1,3.365908E-1,-6.1329354E-2,-5.0771594E-1,1.0414517E-1,3.8428154E-2,-1.18015006E-1,-3.1352464E-2,-5.1645625E-2,5.831942E-2,-4.599639E-2],"categories":[],"categories_nodes":[],"categories_segments":[],"categories_sizes":[],"default_left":[0,0,0,0,0,0,0,0,0,0,0,0,0],"id":78,"left_children":[1,3,5,7,-1,9,11,-1,-1,-1,-1,-1,-1],"loss_changes":[1.2401224E2,4.374622E1,6.328453E0,4.6116608E1,0E0,3.8409424E-1,5.271574E0,0E0,0E0,0E0,0E0,0E0,0E0],"parents":[2147483647,0,0,1,1,2,2,3,3,5,5,6,6],"right_children":[2,4,6,8,-1,10,12,-1,-1,-1,-1,-1,-1],"split_conditions":[5.1E1,5.1E1,6.7E1,5E1,-6.1329354E-2,1.3E1,1.832032E6,3.8428154E-2,-1.18015006E-1,-3.1352464E-2,-5.1645625E-2,5.831942E-2,-4.599639E-2],"split_indices":[8,7,2,4,0,2,0,0,0,0,0,0,0],"split_type":[0,0,0,0,0,0,0,0,0,0,0,0,0],"sum_hessian":[1.0200977E3,6.8188495E2,3.382128E2,6.302769E2,5.1608047E1,3.2069815E2,1.751466E1,6.117872E2,1.8489723E1,1.5400578E1,3.0529758E2,9.4531145E0,8.061545E0],"tree_param":{"num_deleted":"0","num_feature":"9","num_nodes":"13","size_leaf_vector":"1"}},{"base_weights":[2.3167385E-2,8.9470126E-2,-5.1111203E-2,3.4918752E-1,-4.019355E-2,-2.6155685E-3,5.59776E-2,-2.2783076E-2,3.759646E-2],"categories":[],"categories_nodes":[],"categories_segments":[],"categories_sizes":[],"default_left":[0,0,0,0,0,0,0,0,0],"id":79,"left_children":[1,3,-1,5,7,-1,-1,-1,-1],"loss_changes":[3.9405075E1,3.332883E1,0E0,2.606181E1,5.168108E1,0E0,0E0,0E0,0E0],"parents":[2147483647,0,0,1,1,3,3,4,4],"right_children":[2,4,-1,6,8,-1,-1,-1,-1],"split_conditions":[1.01E2,1.3133554E6,-5.1111203E-2,5.1E1,1.8E1,-2.6155685E-3,5.59776E-2,-2.2783076E-2,3.759646E-2],"split_indices":[8,1,0,2,3,0,0,0,0],"split_type":[0,0,0,0,0,0,0,0,0],"sum_hessian":[1.1100868E3,9.882767E2,1.2181012E2,3.2853177E2,6.597449E2,1.1839168E2,2.1014009E2,4.5503253E2,2.0471236E2],"tree_param":{"num_deleted":"0","num_feature":"9","num_nodes":"9","size_leaf_vector":"1"}},{"base_weights":[-5.4952018E-2,-4.5300514E-1,4.582767E-1,-5.2577216E-2,5.1853266E-2,3.1120634E-1,5.2942146E-2,4.1586418E-2,-7.613686E-2],"categories":[],"categories_nodes":[],"categories_segments":[],"categories_sizes":[],"default_left":[0,0,0,0,0,0,0,0,0],"id":80,"left_children":[1,3,5,-1,-1,7,-1,-1,-1],"loss_changes":[1.658504E2,3.2591133E1,3.5462036E0,0E0,0E0,1.3568995E1,0E0,0E0,0E0],"parents":[2147483647,0,0,1,1,2,2,5,5],"right_children":[2,4,6,-1,-1,8,-1,-1,-1],"split_conditions":[9.4E1,8.3E1,1.01E2,-5.2577216E-2,5.1853266E-2,1.8E1,5.2942146E-2,4.1586418E-2,-7.613686E-2],"split_indices":[8,7,8,0,0,3,0,0,0],"split_type":[0,0,0,0,0,0,0,0,0],"sum_hessian":[8.0981274E2,4.5614798E2,3.5366476E2,4.247905E2,3.1357487E1,1.17057655E2,2.366071E2,1.0720889E2,9.848767E0],"tree_param":{"num_deleted":"0","num_feature":"9","num_nodes":"9","size_leaf_vector":"1"}},{"base_weights":[1.9161582E-2,2.54506E-1,-4.727692E-1,3.261184E-1,-6.0965907E-2,-5.055085E-1,1.0963599E-1,4.806343E-2,-1.4348583E-2,-3.0163646E-2,-5.1497906E-2,5.629319E-2,-4.5376375E-2],"categories":[],"categories_nodes":[],"categories_segments":[],"categories_sizes":[],"default_left":[0,0,0,0,0,0,0,0,0,0,0,0,0],"id":81,"left_children":[1,3,5,7,-1,9,11,-1,-1,-1,-1,-1,-1],"loss_changes":[1.1213077E2,4.0737724E1,6.031769E0,4.4011375E1,0E0,4.1796112E-1,4.725521E0,0E0,0E0,0E0,0E0,0E0,0E0],"parents":[2147483647,0,0,1,1,2,2,3,3,5,5,6,6],"right_children":[2,4,6,8,-1,10,12,-1,-1,-1,-1,-1,-1],"split_conditions":[5.1E1,5.1E1,6.7E1,5.1E1,-6.0965907E-2,1.3E1,1.832032E6,4.806343E-2,-1.4348583E-2,-3.0163646E-2,-5.1497906E-2,5.629319E-2,-4.5376375E-2],"split_indices":[8,7,2,2,0,2,0,0,0,0,0,0,0],"split_type":[0,0,0,0,0,0,0,0,0,0,0,0,0],"sum_hessian":[9.6649927E2,6.54069E2,3.1243027E2,6.045899E2,4.947908E1,2.9592706E2,1.650319E1,4.548915E2,1.4969838E2,1.4594838E1,2.8133224E2,9.145667E0,7.3575215E0],"tree_param":{"num_deleted":"0","num_feature":"9","num_nodes":"13","size_leaf_vector":"1"}},{"base_weights":[2.452455E-2,8.7606475E-2,-5.092385E-2,3.423483E-1,-3.9204683E-2,-2.6601616E-3,5.566592E-2,-2.7100936E-2,2.7526686E-2],"categories":[],"categories_nodes":[],"categories_segments":[],"categories_sizes":[],"default_left":[0,0,0,0,0,0,0,0,0],"id":82,"left_children":[1,3,-1,5,7,-1,-1,-1,-1],"loss_changes":[3.5594315E1,3.0542908E1,0E0,2.4858612E1,4.613502E1,0E0,0E0,0E0,0E0],"parents":[2147483647,0,0,1,1,3,3,4,4],"right_children":[2,4,-1,6,8,-1,-1,-1,-1],"split_conditions":[1.01E2,1.3133554E6,-5.092385E-2,5.1E1,1.7E1,-2.6601616E-3,5.566592E-2,-2.7100936E-2,2.7526686E-2],"split_indices":[8,1,0,2,3,0,0,0,0],"split_type":[0,0,0,0,0,0,0,0,0],"sum_hessian":[1.0548022E3,9.4406525E2,1.1073697E2,3.132002E2,6.3086505E2,1.1540277E2,1.9779741E2,3.6324585E2,2.676192E2],"tree_param":{"num_deleted":"0","num_feature":"9","num_nodes":"9","size_leaf_vector":"1"}},{"base_weights":[-5.9119977E-2,-4.5232442E-1,4.508882E-1,-5.245573E-2,5.1441282E-2,3.011233E-1,5.261006E-2,-6.27205E-2,4.2590085E-2],"categories":[],"categories_nodes":[],"categories_segments":[],"categories_sizes":[],"default_left":[0,0,0,0,0,0,0,0,0],"id":83,"left_children":[1,3,5,-1,-1,7,-1,-1,-1],"loss_changes":[1.5091936E2,2.9938866E1,3.532669E0,0E0,0E0,1.3227471E1,0E0,0E0,0E0],"parents":[2147483647,0,0,1,1,2,2,5,5],"right_children":[2,4,6,-1,-1,8,-1,-1,-1],"split_conditions":[9.4E1,8.3E1,1.01E2,-5.245573E-2,5.1441282E-2,3.8E1,5.261006E-2,-6.27205E-2,4.2590085E-2],"split_indices":[8,7,8,0,0,4,0,0,0],"split_type":[0,0,0,0,0,0,0,0,0],"sum_hessian":[7.5055725E2,4.2387366E2,3.2668362E2,3.9483005E2,2.9043612E1,1.1088671E2,2.157969E2,1.2661355E1,9.822536E1],"tree_param":{"num_deleted":"0","num_feature":"9","num_nodes":"9","size_leaf_vector":"1"}},{"base_weights":[1.9789409E-2,2.271361E-1,-5.203535E-1,3.2356825E-1,-7.263994E-1,-1.904368E-1,-5.3265506E-1,5.0846905E-2,-1.360011E-2,-1.466964E-1,-5.5508196E-2,1.1408907E-1,-4.6494883E-2,-6.0626626E-2,-5.1173944E-2],"categories":[],"categories_nodes":[],"categories_segments":[],"categories_sizes":[],"default_left":[0,0,0,0,0,0,0,0,0,0,0,0,0,0,0],"id":84,"left_children":[1,3,5,7,9,11,13,-1,-1,-1,-1,-1,-1,-1,-1],"loss_changes":[1.02221954E2,6.0874702E1,9.2613983E-1,5.1019875E1,6.9091835E0,4.4255295E0,6.4697266E-2,0E0,0E0,0E0,0E0,0E0,0E0,0E0,0E0],"parents":[2147483647,0,0,1,1,2,2,3,3,4,4,5,5,6,6],"right_children":[2,4,6,8,10,12,14,-1,-1,-1,-1,-1,-1,-1,-1],"split_conditions":[5.1E1,5E1,1.3E1,5.1E1,4.4E1,1.2E1,4.7E1,5.0846905E-2,-1.360011E-2,-1.466964E-1,-5.5508196E-2,1.1408907E-1,-4.6494883E-2,-6.0626626E-2,-5.1173944E-2],"split_indices":[7,4,2,2,8,4,8,0,0,0,0,0,0,0,0],"split_type":[0,0,0,0,0,0,0,0,0,0,0,0,0,0,0],"sum_hessian":[9.106664E2,6.584747E2,2.5219168E2,5.985984E2,5.9876278E1,9.657845E0,2.4253384E2,4.267825E2,1.7181592E2,9.828248E0,5.0048027E1,1.1114537E0,8.5463915E0,4.7472176E1,1.9506166E2],"tree_param":{"num_deleted":"0","num_feature":"9","num_nodes":"15","size_leaf_vector":"1"}},{"base_weights":[2.5030514E-2,8.5143395E-2,-5.0746765E-2,3.3382538E-1,-3.6742568E-2,-2.4436133E-3,5.516823E-2,-2.602075E-2,2.6632452E-2],"categories":[],"categories_nodes":[],"categories_segments":[],"categories_sizes":[],"default_left":[0,0,0,0,0,0,0,0,0],"id":85,"left_children":[1,3,-1,5,7,-1,-1,-1,-1],"loss_changes":[3.207092E1,2.7289488E1,0E0,2.3123737E1,4.103063E1,0E0,0E0,0E0,0E0],"parents":[2147483647,0,0,1,1,3,3,4,4],"right_children":[2,4,-1,6,8,-1,-1,-1,-1],"split_conditions":[1.01E2,1.3133554E6,-5.0746765E-2,5.1E1,1.7E1,-2.4436133E-3,5.516823E-2,-2.602075E-2,2.6632452E-2],"split_indices":[8,1,0,2,3,0,0,0,0],"split_type":[0,0,0,0,0,0,0,0,0],"sum_hessian":[9.9955347E2,8.989163E2,1.00637146E2,2.950966E2,6.038197E2,1.1192533E2,1.8317126E2,3.4763458E2,2.5618512E2],"tree_param":{"num_deleted":"0","num_feature":"9","num_nodes":"9","size_leaf_vector":"1"}},{"base_weights":[-6.186797E-2,-4.5167515E-1,4.4463992E-1,-5.233719E-2,5.103591E-2,2.9510844E-1,5.230805E-2,4.0383004E-2,-7.509496E-2],"categories":[],"categories_nodes":[],"categories_segments":[],"categories_sizes":[],"default_left":[0,0,0,0,0,0,0,0,0],"id":86,"left_children":[1,3,5,-1,-1,7,-1,-1,-1],"loss_changes":[1.3770135E2,2.7445946E1,3.4040184E0,0E0,0E0,1.2435831E1,0E0,0E0,0E0],"parents":[2147483647,0,0,1,1,2,2,5,5],"right_children":[2,4,6,-1,-1,8,-1,-1,-1],"split_conditions":[9.4E1,8.3E1,1.01E2,-5.233719E-2,5.103591E-2,1.8E1,5.230805E-2,4.0383004E-2,-7.509496E-2],"split_indices":[8,7,8,0,0,3,0,0,0],"split_type":[0,0,0,0,0,0,0,0,0],"sum_hessian":[6.954153E2,3.9304056E2,3.0237476E2,3.6620468E2,2.683586E1,1.0567959E2,1.9669516E2,9.628609E1,9.393504E0],"tree_param":{"num_deleted":"0","num_feature":"9","num_nodes":"9","size_leaf_vector":"1"}},{"base_weights":[2.0336602E-2,2.216856E-1,-5.1851076E-1,3.1811875E-1,-7.136119E-1,-1.7565519E-1,-5.3173316E-1,5.011904E-2,-1.25958575E-2,-1.3333738E-1,-5.542742E-2,1.0380351E-1,-4.609098E-2,-6.02895E-2,-5.103497E-2],"categories":[],"categories_nodes":[],"categories_segments":[],"categories_sizes":[],"default_left":[0,0,0,0,0,0,0,0,0,0,0,0,0,0,0],"id":87,"left_children":[1,3,5,7,9,11,13,-1,-1,-1,-1,-1,-1,-1,-1],"loss_changes":[9.356582E1,5.6844162E1,9.701195E-1,4.638248E1,5.085346E0,4.011425E0,3.528595E-2,0E0,0E0,0E0,0E0,0E0,0E0,0E0,0E0],"parents":[2147483647,0,0,1,1,2,2,3,3,4,4,5,5,6,6],"right_children":[2,4,6,8,10,12,14,-1,-1,-1,-1,-1,-1,-1,-1],"split_conditions":[5.1E1,5E1,1.3E1,5.1E1,4.4E1,5.3E1,4.7E1,5.011904E-2,-1.25958575E-2,-1.3333738E-1,-5.542742E-2,1.0380351E-1,-4.609098E-2,-6.02895E-2,-5.103497E-2],"split_indices":[7,4,2,2,8,7,8,0,0,0,0,0,0,0,0],"split_type":[0,0,0,0,0,0,0,0,0,0,0,0,0,0,0],"sum_hessian":[8.603271E2,6.2672845E2,2.3359859E2,5.68748E2,5.798046E1,9.204723E0,2.2439386E2,4.0263318E2,1.6611484E2,1.0350969E1,4.7629494E1,1.2494853E0,7.9552383E0,4.5564747E1,1.7882912E2],"tree_param":{"num_deleted":"0","num_feature":"9","num_nodes":"15","size_leaf_vector":"1"}},{"base_weights":[2.5460387E-2,8.256522E-2,-5.0578024E-2,3.2758498E-1,-3.5849232E-2,-2.0230713E-3,5.4793384E-2,-2.7958909E-2,2.3099737E-2],"categories":[],"categories_nodes":[],"categories_segments":[],"categories_sizes":[],"default_left":[0,0,0,0,0,0,0,0,0],"id":88,"left_children":[1,3,-1,5,7,-1,-1,-1,-1],"loss_changes":[2.8886421E1,2.4946247E1,0E0,2.1478832E1,3.7807327E1,0E0,0E0,0E0,0E0],"parents":[2147483647,0,0,1,1,3,3,4,4],"right_children":[2,4,-1,6,8,-1,-1,-1,-1],"split_conditions":[1.01E2,1.3133554E6,-5.0578024E-2,5.1E1,5E1,-2.0230713E-3,5.4793384E-2,-2.7958909E-2,2.3099737E-2],"split_indices":[8,1,0,2,8,0,0,0,0],"split_type":[0,0,0,0,0,0,0,0,0],"sum_hessian":[9.498266E2,8.58399E2,9.14276E1,2.7910873E2,5.792902E2,1.0859777E2,1.7051099E2,3.0272815E2,2.765621E2],"tree_param":{"num_deleted":"0","num_feature":"9","num_nodes":"9","size_leaf_vector":"1"}},{"base_weights":[-6.455265E-2,-4.5129135E-1,4.3798363E-1,-5.224529E-2,5.0648E-2,2.8836456E-1,5.203533E-2,-6.232006E-2,4.139811E-2],"categories":[],"categories_nodes":[],"categories_segments":[],"categories_sizes":[],"default_left":[0,0,0,0,0,0,0,0,0],"id":89,"left_children":[1,3,5,-1,-1,7,-1,-1,-1],"loss_changes":[1.25820244E2,2.5193703E1,3.3205261E0,0E0,0E0,1.196423E1,0E0,0E0,0E0],"parents":[2147483647,0,0,1,1,2,2,5,5],"right_children":[2,4,6,-1,-1,8,-1,-1,-1],"split_conditions":[9.4E1,8.3E1,1.01E2,-5.224529E-2,5.0648E-2,3.8E1,5.203533E-2,-6.232006E-2,4.139811E-2],"split_indices":[8,7,8,0,0,4,0,0,0],"split_type":[0,0,0,0,0,0,0,0,0],"sum_hessian":[6.453722E2,3.647625E2,2.8060965E2,3.399584E2,2.48041E1,1.0123103E2,1.7937862E2,1.1780683E1,8.9450356E1],"tree_param":{"num_deleted":"0","num_feature":"9","num_nodes":"9","size_leaf_vector":"1"}},{"base_weights":[1.9584702E-2,2.1523191E-1,-5.166584E-1,3.110323E-1,-7.0597E-1,-1.58636E-1,-5.308929E-1,4.9398012E-2,-1.173558E-2,-1.2545957E-1,-5.5075772E-2,9.9643596E-2,-4.5571428E-2,-5.996436E-2,-5.0899833E-2],"categories":[],"categories_nodes":[],"categories_segments":[],"categories_sizes":[],"default_left":[0,0,0,0,0,0,0,0,0,0,0,0,0,0,0],"id":90,"left_children":[1,3,5,7,9,11,13,-1,-1,-1,-1,-1,-1,-1,-1],"loss_changes":[8.526829E1,5.2765427E1,1.0230446E0,4.2380577E1,4.1110573E0,3.7943597E0,8.693695E-3,0E0,0E0,0E0,0E0,0E0,0E0,0E0,0E0],"parents":[2147483647,0,0,1,1,2,2,3,3,4,4,5,5,6,6],"right_children":[2,4,6,8,10,12,14,-1,-1,-1,-1,-1,-1,-1,-1],"split_conditions":[5.1E1,5E1,1.3E1,5.1E1,4.4E1,1.2E1,4.7E1,4.9398012E-2,-1.173558E-2,-1.2545957E-1,-5.5075772E-2,9.9643596E-2,-4.5571428E-2,-5.996436E-2,-5.0899833E-2],"split_indices":[7,4,2,2,8,4,8,0,0,0,0,0,0,0,0],"split_type":[0,0,0,0,0,0,0,0,0,0,0,0,0,0,0],"sum_hessian":[8.1068097E2,5.944102E2,2.1627074E2,5.3901746E2,5.5392757E1,8.734231E0,2.0753651E2,3.7760434E2,1.6141316E2,1.0653379E1,4.473938E1,1.3052317E0,7.428999E0,4.3754932E1,1.6378157E2],"tree_param":{"num_deleted":"0","num_feature":"9","num_nodes":"15","size_leaf_vector":"1"}},{"base_weights":[2.5864681E-2,8.021004E-2,-5.0415993E-2,3.206598E-1,-3.4484457E-2,-1.6541192E-3,5.4371864E-2,-1.9903949E-2,3.475343E-2],"categories":[],"categories_nodes":[],"categories_segments":[],"categories_sizes":[],"default_left":[0,0,0,0,0,0,0,0,0],"id":91,"left_children":[1,3,-1,5,7,-1,-1,-1,-1],"loss_changes":[2.6027859E1,2.2602158E1,0E0,1.9914623E1,3.499063E1,0E0,0E0,0E0,0E0],"parents":[2147483647,0,0,1,1,3,3,4,4],"right_children":[2,4,-1,6,8,-1,-1,-1,-1],"split_conditions":[1.01E2,1.3133554E6,-5.0415993E-2,5.1E1,1.8E1,-1.6541192E-3,5.4371864E-2,-1.9903949E-2,3.475343E-2],"split_indices":[8,1,0,2,3,0,0,0,0],"split_type":[0,0,0,0,0,0,0,0,0],"sum_hessian":[9.0120386E2,8.1816327E2,8.3040596E1,2.636474E2,5.5451587E2,1.0533577E2,1.5831163E2,3.8790454E2,1.6661134E2],"tree_param":{"num_deleted":"0","num_feature":"9","num_nodes":"9","size_leaf_vector":"1"}},{"base_weights":[-6.527312E-2,-4.4919536E-1,4.3275517E-1,-5.216312E-2,5.039229E-2,2.8638965E-1,5.1785786E-2,3.9766032E-2,-7.361648E-2],"categories":[],"categories_nodes":[],"categories_segments":[],"categories_sizes":[],"default_left":[0,0,0,0,0,0,0,0,0],"id":92,"left_children":[1,3,5,-1,-1,7,-1,-1,-1],"loss_changes":[1.15115944E2,2.3728989E1,3.1170387E0,0E0,0E0,1.151377E1,0E0,0E0,0E0],"parents":[2147483647,0,0,1,1,2,2,5,5],"right_children":[2,4,6,-1,-1,8,-1,-1,-1],"split_conditions":[9.4E1,8.3E1,1.01E2,-5.216312E-2,5.039229E-2,1.8E1,5.1785786E-2,3.9766032E-2,-7.361648E-2],"split_indices":[8,7,8,0,0,3,0,0,0],"split_type":[0,0,0,0,0,0,0,0,0],"sum_hessian":[6.000411E2,3.3889233E2,2.6114877E2,3.153768E2,2.3515543E1,9.762009E1,1.6352869E2,8.859104E1,9.029045E0],"tree_param":{"num_deleted":"0","num_feature":"9","num_nodes":"9","size_leaf_vector":"1"}},{"base_weights":[2.0490332E-2,2.1016093E-1,-5.147865E-1,3.061618E-1,-6.9806087E-1,-1.4360656E-1,-5.300773E-2,4.8671346E-2,-1.0667542E-2,-1.18402384E-1,-5.49598E-2,9.215889E-2,-4.5159608E-2],"categories":[],"categories_nodes":[],"categories_segments":[],"categories_sizes":[],"default_left":[0,0,0,0,0,0,0,0,0,0,0,0,0],"id":93,"left_children":[1,3,5,7,9,11,-1,-1,-1,-1,-1,-1,-1],"loss_changes":[7.810644E1,4.973465E1,1.0663376E0,3.8391834E1,3.2885647E0,3.4789495E0,0E0,0E0,0E0,0E0,0E0,0E0,0E0],"parents":[2147483647,0,0,1,1,2,2,3,3,4,4,5,5],"right_children":[2,4,6,8,10,12,-1,-1,-1,-1,-1,-1,-1],"split_conditions":[5.1E1,5E1,1.3E1,5.1E1,4.4E1,5.3E1,-5.300773E-2,4.8671346E-2,-1.0667542E-2,-1.18402384E-1,-5.49598E-2,9.215889E-2,-4.5159608E-2],"split_indices":[7,4,2,2,8,7,0,0,0,0,0,0,0],"split_type":[0,0,0,0,0,0,0,0,0,0,0,0,0],"sum_hessian":[7.6725684E2,5.6696515E2,2.0029169E2,5.133644E2,5.3600746E1,8.335729E0,1.9195596E2,3.5703745E2,1.5632695E2,1.0910908E1,4.268984E1,1.4227636E0,6.9129653E0],"tree_param":{"num_deleted":"0","num_feature":"9","num_nodes":"13","size_leaf_vector":"1"}},{"base_weights":[2.6308605E-2,7.794282E-2,-5.025902E-2,3.1481305E-1,-3.3676114E-2,-1.3034911E-3,5.406226E-2,-1.65135E-2,4.3884613E-2],"categories":[],"categories_nodes":[],"categories_segments":[],"categories_sizes":[],"default_left":[0,0,0,0,0,0,0,0,0],"id":94,"left_children":[1,3,-1,5,7,-1,-1,-1,-1],"loss_changes":[2.345832E1,2.0689909E1,0E0,1.8560228E1,3.315192E1,0E0,0E0,0E0,0E0],"parents":[2147483647,0,0,1,1,3,3,4,4],"right_children":[2,4,-1,6,8,-1,-1,-1,-1],"split_conditions":[1.01E2,1.3133554E6,-5.025902E-2,5.1E1,5E1,-1.3034911E-3,5.406226E-2,-1.65135E-2,4.3884613E-2],"split_indices":[8,1,0,2,4,0,0,0,0],"split_type":[0,0,0,0,0,0,0,0,0],"sum_hessian":[8.565529E2,7.8114557E2,7.5407394E1,2.4961304E2,5.3153253E2,1.0218913E2,1.474239E2,4.163513E2,1.1518122E2],"tree_param":{"num_deleted":"0","num_feature":"9","num_nodes":"9","size_leaf_vector":"1"}},{"base_weights":[-6.871877E-2,-4.487657E-1,4.258475E-1,-5.209024E-2,5.0038356E-2,2.7760705E-1,5.1556475E-2,-6.165641E-2,4.0337406E-2],"categories":[],"categories_nodes":[],"categories_segments":[],"categories_sizes":[],"default_left":[0,0,0,0,0,0,0,0,0],"id":95,"left_children":[1,3,5,-1,-1,7,-1,-1,-1],"loss_changes":[1.04956894E2,2.1874271E1,3.0849266E0,0E0,0E0,1.0783449E1,0E0,0E0,0E0],"parents":[2147483647,0,0,1,1,2,2,5,5],"right_children":[2,4,6,-1,-1,8,-1,-1,-1],"split_conditions":[9.4E1,8.3E1,1.01E2,-5.209024E-2,5.0038356E-2,3.8E1,5.1556475E-2,-6.165641E-2,4.0337406E-2],"split_indices":[8,7,8,0,0,4,0,0,0],"split_type":[0,0,0,0,0,0,0,0,0],"sum_hessian":[5.563882E2,3.146724E2,2.4171579E2,2.928654E2,2.1807E1,9.2677795E1,1.49038E2,1.09467535E1,8.173105E1],"tree_param":{"num_deleted":"0","num_feature":"9","num_nodes":"9","size_leaf_vector":"1"}},{"base_weights":[2.0712461E-2,2.0587236E-1,-5.1316714E-1,2.9935122E-1,-6.8544024E-1,-1.3460314E-1,-5.2949376E-2,4.7847312E-2,-9.798094E-3,-1.0947164E-1,-5.450949E-2,8.574652E-2,-4.4751942E-2],"categories":[],"categories_nodes":[],"categories_segments":[],"categories_sizes":[],"default_left":[0,0,0,0,0,0,0,0,0,0,0,0,0],"id":96,"left_children":[1,3,5,7,9,11,-1,-1,-1,-1,-1,-1,-1],"loss_changes":[7.204689E1,4.528633E1,1.0887909E0,3.4949383E1,2.370823E0,3.2089708E0,0E0,0E0,0E0,0E0,0E0,0E0,0E0],"parents":[2147483647,0,0,1,1,2,2,3,3,4,4,5,5],"right_children":[2,4,6,8,10,12,-1,-1,-1,-1,-1,-1,-1],"split_conditions":[5.1E1,5E1,1.3E1,5.1E1,4.4E1,1.2E1,-5.2949376E-2,4.7847312E-2,-9.798094E-3,-1.0947164E-1,-5.450949E-2,8.574652E-2,-4.4751942E-2],"split_indices":[7,4,2,2,8,4,0,0,0,0,0,0,0],"split_type":[0,0,0,0,0,0,0,0,0,0,0,0,0],"sum_hessian":[7.2675916E2,5.4006757E2,1.8669162E2,4.8940408E2,5.0663452E1,8.100921E0,1.785907E2,3.3719052E2,1.5221358E2,1.1200448E1,3.9463005E1,1.525199E0,6.575722E0],"tree_param":{"num_deleted":"0","num_feature":"9","num_nodes":"13","size_leaf_vector":"1"}},{"base_weights":[2.6675962E-2,7.557553E-2,-5.0105598E-2,-6.745204E-2,2.5140992E-1,-1.9857358E-2,7.219605E-2,3.48954E-2,-5.0793886E-2],"categories":[],"categories_nodes":[],"categories_segments":[],"categories_sizes":[],"default_left":[0,0,0,0,0,0,0,0,0],"id":97,"left_children":[1,3,-1,5,7,-1,-1,-1,-1],"loss_changes":[2.1137072E1,1.8857368E1,0E0,4.2985775E1,2.5082985E1,0E0,0E0,0E0,0E0],"parents":[2147483647,0,0,1,1,3,3,4,4],"right_children":[2,4,-1,6,8,-1,-1,-1,-1],"split_conditions":[1.01E2,4.6E1,-5.0105598E-2,5.1E1,8.6E1,-1.9857358E-2,7.219605E-2,3.48954E-2,-5.0793886E-2],"split_indices":[8,8,0,7,7,0,0,0,0],"split_type":[0,0,0,0,0,0,0,0,0],"sum_hessian":[8.166128E2,7.481465E2,6.846636E1,4.1290045E2,3.35246E2,3.5472845E2,5.8171993E1,2.9756232E2,3.7683674E1],"tree_param":{"num_deleted":"0","num_feature":"9","num_nodes":"9","size_leaf_vector":"1"}},{"base_weights":[-7.113869E-2,-4.483641E-1,4.1995683E-1,-5.201557E-2,4.969571E-2,2.7348572E-1,5.1342726E-2,3.884746E-2,-7.226743E-2],"categories":[],"categories_nodes":[],"categories_segments":[],"categories_sizes":[],"default_left":[0,0,0,0,0,0,0,0,0],"id":98,"left_children":[1,3,5,-1,-1,7,-1,-1,-1],"loss_changes":[9.623967E1,2.0192326E1,2.9504318E0,0E0,0E0,1.0599934E1,0E0,0E0,0E0],"parents":[2147483647,0,0,1,1,2,2,5,5],"right_children":[2,4,6,-1,-1,8,-1,-1,-1],"split_conditions":[9.4E1,8.3E1,1.01E2,-5.201557E-2,4.969571E-2,1.8E1,5.1342726E-2,3.884746E-2,-7.226743E-2],"split_indices":[8,7,8,0,0,3,0,0,0],"split_type":[0,0,0,0,0,0,0,0,0],"sum_hessian":[5.174856E2,2.9272308E2,2.2476251E2,2.724796E2,2.0243448E1,8.9086716E1,1.356758E2,8.0414345E1,8.672375E0],"tree_param":{"num_deleted":"0","num_feature":"9","num_nodes":"9","size_leaf_vector":"1"}},{"base_weights":[2.0698024E-2,1.9707865E-1,-5.092785E-1,2.8806707E-1,-6.790832E-1,-1.1537255E-1,-5.268991E-2,4.7180306E-2,-9.771036E-3,-1.04629874E-1,-5.4102678E-2,8.263013E-2,-4.426691E-2],"categories":[],"categories_nodes":[],"categories_segments":[],"categories_sizes":[],"default_left":[0,0,0,0,0,0,0,0,0,0,0,0,0],"id":99,"left_children":[1,3,5,7,9,11,-1,-1,-1,-1,-1,-1,-1],"loss_changes":[6.456387E1,4.15017E1,